avere	0.11802	0.12139	-0.24114	0.036973	-0.083294	-0.092217	-0.24011	0.32002	0.23662	-0.19048	-0.13143	0.17301	-0.05357	-0.043395	-0.030154	-0.031399	0.28047	-0.17646	0.070699	-0.12403	0.23274	0.33237	-0.19422	-0.11218	-0.054037	0.015676	0.1848	0.19668	-0.072562	-0.019504	0.22849	0.25177	-0.016357	-0.18255	-0.17344	0.010074	0.15003	-0.059845	-0.24377	0.075466	-0.062956	0.13546	-0.057311	0.3149	0.36402	0.03449	0.20854	0.0042343	0.14625	0.23943	-0.51403	-0.067435	-0.39058	0.25828	-0.16276	-0.20716	-0.42059	0.28591	0.2931	0.14441	0.21894	0.12339	0.29613	0.17464	0.13112	-0.065748	0.1207	0.26026	-0.24343	-0.16027	-0.19115	-0.060814	0.047669	-0.15611	0.083597	0.028146	0.089417	0.071589	-0.027349	-0.10026	-0.025657	0.12114	0.22473	0.15326	-0.062236	-0.059708	0.0037481	-0.037591	-0.12251	-0.16701	-0.041587	0.059463	0.26768	-0.12845	-0.17529	-0.097338	-0.14173	0.029269	0.18491	-0.010567
fare	0.23234	0.15151	-0.26598	0.22141	-0.067427	-0.14867	-0.21324	0.34733	0.11993	0.12176	-0.13033	0.19073	0.043632	-0.032461	0.061465	0.12181	0.23663	-0.10929	0.19694	-0.2113	0.1033	0.15271	-0.11219	-0.040483	-0.046796	-0.035841	0.21028	0.088999	-0.15504	0.21091	0.0036172	0.18158	-0.22595	-0.10195	0.026069	-0.048115	-0.035711	0.0068542	-0.32501	0.11369	0.035977	0.20152	-0.15487	0.30742	0.34498	-0.26316	0.2249	-0.15662	0.00242	0.016909	-0.42188	0.086538	-0.44457	0.12647	-0.038302	-0.2937	-0.18704	0.26835	0.22239	0.14963	0.22709	-0.08094	0.12521	0.08662	0.19747	0.070449	0.12396	0.33726	-0.053223	-0.14214	0.083266	-0.16605	0.19814	0.029421	-0.0076314	0.0033952	0.25156	0.10598	-0.0017669	-0.13115	0.026168	0.11078	0.2778	0.18911	0.041022	0.020532	0.26342	0.11644	-0.26934	-0.13265	-0.064294	0.067768	0.32116	0.0236	-0.13207	-0.040769	-0.18004	0.16644	0.091462	-0.26548
dire	0.18043	0.18913	-0.36126	0.1303	-0.032302	0.083733	-0.17451	0.22223	0.15792	0.064043	0.0823	0.35971	0.22158	0.060055	0.059548	0.0070577	0.19916	-0.052452	0.17772	-0.16737	0.10927	0.25804	-0.24661	-0.019543	-0.16759	-0.0062275	0.53783	0.15267	0.022583	0.21088	0.13045	0.19454	-0.082135	-0.09604	-0.12128	0.0063412	-0.21656	0.069217	-0.29634	0.07871	-0.080829	0.23983	0.22977	0.38444	0.33915	-0.30185	0.25944	-0.032193	0.13349	0.20541	-0.046028	0.039982	-0.32603	0.18178	-0.11346	-0.51931	-0.21495	0.37632	0.38474	-0.0019431	0.36986	0.15508	0.087244	0.37899	0.23074	-0.11759	0.10496	0.21822	0.019134	-0.037426	0.2341	-0.29582	0.15818	-0.01115	0.13805	-0.14423	0.27275	-0.02181	0.061715	-0.09346	-0.028075	0.077912	0.12418	0.17262	0.077113	-0.16981	0.20685	0.079218	-0.28005	-0.23898	-0.21503	0.030851	0.42233	-0.10835	-0.052223	-0.028402	-0.0065801	-0.12501	-0.085561	0.051835
volere	0.089802	0.10561	-0.14085	0.17533	0.12131	0.031848	-0.26887	0.4466	0.01264	0.087382	-0.13737	0.21786	-0.10491	-0.16912	0.12027	-0.016324	0.32242	-0.31345	0.13782	-0.27039	0.20289	0.32308	-0.091832	-0.010346	-0.023474	-0.2324	0.398	-0.0084339	-0.060007	0.17783	-0.02668	0.13921	-0.17618	-0.038018	-0.121	-0.037134	0.15906	0.0076412	-0.20137	0.066164	-0.025041	0.12361	0.10277	0.36043	0.34411	-0.19233	0.13653	-0.017315	0.2284	0.13664	-0.22697	-0.06499	-0.4613	0.082831	-0.20524	-0.53848	-0.34646	0.32723	0.21673	0.30377	0.32939	-0.10774	0.22312	0.060747	0.12966	-0.021866	0.11313	0.28525	-0.13457	-0.24492	0.072444	-0.21997	0.18672	0.10415	0.25137	-0.11344	0.24897	0.098393	-0.093082	-0.1659	-0.084615	0.24055	0.10029	0.27936	0.16447	0.016719	0.080536	-0.025355	-0.17942	-0.2393	-0.048769	-0.042649	0.33634	0.063321	-0.12977	-0.17232	-0.14436	0.22106	0.17233	0.041625
andare	0.15251	0.19305	-0.14789	0.12247	0.043715	-0.044163	-0.12624	0.34436	-0.020587	0.052579	-0.24824	0.13997	-0.045745	-0.084879	0.15491	0.15632	0.10454	0.0586	0.018432	-0.24837	0.023596	0.45119	-0.079507	-0.15766	-0.00076228	-0.19157	0.080968	0.064639	-0.14482	0.2586	-0.058748	0.013379	-0.47095	-0.040759	0.10045	-0.096091	-0.043697	-0.42288	-0.17806	0.14931	-0.023195	0.13592	0.01046	0.19294	0.47457	-0.43751	0.62189	-0.19039	0.11578	-0.096001	-0.16008	0.012604	-0.20735	0.23211	-0.032552	-0.41932	-0.19219	0.38346	0.095444	-0.080145	0.26063	-0.061475	0.12032	0.18626	0.15396	0.18092	-0.045804	0.16754	-0.018105	-0.10841	0.21003	-0.035257	0.064718	-0.031197	0.128	-0.0040818	0.18486	0.12835	0.03041	-0.18817	0.14101	0.15339	0.12883	0.22376	0.10753	0.12019	0.26835	-0.0099458	-0.061633	-0.37001	-0.25798	0.010742	0.38241	-0.07794	-0.20022	-0.013141	-0.095888	0.20588	0.10624	-0.026024
stare	0.24812	0.078244	-0.060045	0.14737	0.10167	0.011442	-0.19285	0.26467	0.046332	0.068951	-0.35494	0.090014	-0.12595	0.10587	0.10869	0.047326	0.20143	-0.28354	0.22265	-0.31542	0.11717	0.1819	-0.18105	-0.26664	-0.087502	-0.0088688	0.23809	0.024269	-0.063492	0.22048	0.15995	0.23491	-0.31925	-0.1353	-0.028378	-0.092035	0.084157	-0.14579	-0.33679	0.065814	0.013809	0.27151	-0.13643	0.29257	0.31126	-0.38446	0.16736	-0.12469	0.10464	-0.044754	-0.3547	0.026529	-0.23444	0.27316	-0.21835	-0.44675	-0.29073	0.36978	0.3964	0.37563	0.28952	-0.019841	0.16281	0.22393	0.23087	0.11977	0.076336	0.33062	-0.10964	-0.1121	0.25288	-0.0039353	0.094863	-0.19361	0.13187	0.16607	0.045465	0.055534	-0.1528	-0.27058	-0.0182	-0.089658	0.043297	0.20139	0.10614	-0.13734	0.23873	0.018589	-0.08876	-0.18567	0.1123	-0.092405	0.30299	-0.18525	-0.18536	0.040492	-0.21402	0.066289	0.24078	0.00093976
dare	0.062679	0.34899	-0.24824	-0.11829	-0.18964	0.05602	-0.25515	0.29238	0.2423	0.10645	-0.041804	0.20792	-0.081802	-0.28184	0.042471	0.36288	-0.045859	0.21123	0.30551	-0.037448	0.21938	0.22885	-0.0098825	-0.022814	0.008759	0.14537	0.32969	0.13257	-0.22564	0.28854	0.25189	0.31856	-0.092369	-0.1413	0.051468	-0.0036271	-0.0016176	-0.10227	-0.32551	0.28026	-0.0048776	0.36224	-0.12208	0.15599	0.42614	-0.16384	0.16551	0.1177	-0.098576	-0.0058376	-0.29157	-0.13314	-0.51302	-0.30459	-0.096935	-0.094391	-0.34946	0.26389	0.13495	-0.15492	0.28522	0.084261	0.36738	-0.053385	0.23629	0.0051525	0.11491	0.38503	-0.085756	-0.096468	-0.18315	-0.08776	0.25672	-0.029063	0.15805	0.15344	0.13028	-0.20002	0.23392	-0.01575	0.01905	0.21058	0.19951	0.26758	0.01999	-0.12317	0.062113	-0.054759	-0.28106	-0.037636	0.039562	0.064327	0.27905	-0.08331	-0.078603	-0.20498	-0.070785	0.23759	-0.26651	-0.20272
sapere	0.20704	0.21665	-0.14015	0.21262	0.10577	0.09419	-0.20972	0.42336	0.11426	0.042037	-0.14063	0.18586	-0.15462	0.025427	0.070688	0.0065561	0.33622	-0.27138	0.25928	-0.16419	0.34872	0.17745	-0.1921	-0.027675	-0.072344	-0.076984	0.40101	-0.02388	-0.10843	0.18889	0.20083	0.067202	-0.12097	0.060205	-0.13379	0.11685	-0.068649	-0.025739	-0.19513	-0.011075	0.0020203	0.26541	0.15398	0.41234	0.38324	-0.36249	0.12665	-0.18061	-0.015662	0.17395	-0.097078	0.2543	-0.32468	0.29687	-0.12683	-0.37603	-0.36304	0.3699	0.37557	0.17448	0.42323	0.12225	0.056983	0.18929	0.22522	0.041435	0.037278	0.29319	0.12547	-0.13897	0.18996	-0.17864	0.15889	0.0053242	0.14665	-0.10713	0.34007	-0.10675	-0.018241	-0.053708	-0.071699	0.16501	0.10186	0.16929	0.029297	-0.16064	0.038948	0.048015	-0.37986	-0.12809	-0.0020505	-0.096098	0.42045	0.0334	-0.1575	-0.12582	0.0014086	0.16387	0.037854	-0.10997
vedere	0.24441	0.19597	-0.28981	0.21737	-0.28065	-0.033363	-0.2417	0.2828	0.025628	0.11428	-0.30518	0.18578	0.095874	0.01586	-0.011412	0.20524	0.18125	0.10192	0.2923	-0.03837	-0.019863	-0.016367	-0.33776	-0.10206	-0.09523	0.032686	0.22132	-0.10075	-0.14432	0.29211	-0.06596	0.10938	-0.56952	-0.061503	-0.081312	-0.18957	0.086213	-0.061327	-0.40547	0.022835	-0.19421	0.38101	0.12316	0.13131	0.38396	-0.30731	0.17852	-0.16053	-0.024297	0.084503	-0.29063	0.046277	-0.1664	0.37697	0.019554	-0.28327	-0.094761	0.33354	0.065442	-0.041762	0.46179	-0.034377	0.22246	0.11987	0.21833	0.097492	0.041169	0.23146	-0.13202	-0.08453	0.032661	-0.14724	0.034671	-0.14197	0.16463	-0.022923	0.14309	0.046498	0.064903	-0.21698	0.21598	0.045805	0.065343	0.11412	0.11227	-0.071007	0.17247	0.16117	-0.07631	-0.055015	-0.068499	-0.072591	0.42117	0.22364	-0.07638	-0.059956	-0.15068	0.036908	0.10081	0.067096
trovare	0.35894	0.04376	-0.1798	0.30339	-0.13275	-0.095972	-0.052171	0.31169	0.28096	0.054105	-0.077513	0.2061	-0.19345	-0.030975	0.055713	0.15295	-0.010933	0.38627	0.26235	-0.12286	0.13815	0.15221	-0.029348	0.20431	0.066871	0.33076	-0.0054261	-0.15857	-0.14672	0.4906	-0.081272	-0.071214	0.024188	-0.21731	0.015079	-0.29731	0.046733	-0.25922	-0.10062	0.13588	0.11683	0.33446	-0.074446	0.18168	0.19899	-0.25106	0.27032	-0.27715	-0.12886	0.1608	-0.095303	-0.014786	-0.18803	0.34764	0.21251	-0.43973	-0.11911	0.40378	-0.0077895	-0.012065	0.50653	0.11319	0.37198	-0.1157	0.097306	0.3028	0.14125	0.20498	-0.018779	-0.023664	0.099057	-0.36033	0.047451	-0.2444	0.18462	0.18944	0.11215	-0.27753	0.19223	-0.2796	0.22339	0.32698	0.1507	0.23225	-0.024558	-0.096268	0.11392	0.010073	0.077878	0.14285	0.16734	-0.036391	0.30712	-0.17388	-0.12601	-0.2387	-0.26004	0.26109	-0.37535	0.0054433
mettere	0.13388	0.20201	-0.27675	0.14706	-0.15675	-0.47479	-0.27304	0.13736	0.25023	0.39647	-0.03999	0.13075	-0.082722	-0.034803	0.03998	0.23395	0.12252	0.035365	0.31439	-0.281	-0.26755	0.24333	0.066768	-0.1232	-0.061423	0.15154	-0.041863	0.089778	-0.08082	0.23977	0.12276	-0.09604	-0.24217	-0.30502	0.21068	-0.071902	0.23096	-0.23895	-0.34804	0.3462	-0.16916	0.31115	-0.40893	0.19095	0.55466	-0.32601	-0.018505	-0.32618	0.1227	-0.20824	-0.46717	0.019941	-0.61345	0.32147	-0.011022	-0.41177	-0.091833	0.21332	0.262	0.1728	0.13955	0.03204	0.27064	0.024452	0.4516	0.28712	0.24785	0.10371	-0.12075	-0.35676	-0.066368	-0.11113	-0.15898	0.047835	0.1079	0.1708	0.12766	-0.36322	0.035214	-0.001243	0.10632	0.031149	0.1071	0.28612	0.21046	0.18107	0.14677	-0.047036	-0.25195	0.016329	0.24633	0.089793	0.26246	-0.041856	0.04691	0.094796	-0.21479	-0.071159	-0.22027	-0.13121
pensare	0.22328	0.082323	-0.016423	0.057337	0.071008	0.020079	-0.11448	0.36024	0.044265	0.19928	-0.040784	0.35074	0.10136	0.017955	0.066319	0.074352	0.15065	-0.086012	0.20184	-0.14144	0.27062	0.2008	-0.1282	0.054864	-0.0087706	-0.19131	0.49563	-0.00065876	-0.094231	0.25087	-0.10225	0.10197	-0.27406	-0.09491	-0.0038459	0.0072559	0.065873	0.034106	-0.41376	0.091423	-0.090964	0.23658	0.054722	0.37715	0.32797	-0.2389	0.27698	0.026471	-0.036673	0.040552	-0.21925	0.14609	-0.39432	0.19411	-0.22452	-0.43337	-0.27976	0.41286	0.21555	0.23702	0.56151	-0.011965	0.076067	0.34471	0.30197	0.10884	0.045755	0.25402	-0.017007	-0.10451	0.16564	-0.2628	0.14124	-0.021807	0.24663	-0.1745	0.16653	0.033841	-0.055064	-0.16947	-0.061811	0.12666	0.17447	0.19427	0.096837	-0.19964	0.13071	0.055157	-0.15252	-0.092717	0.025541	-0.12815	0.29557	-0.032241	-0.18087	0.0024572	0.05701	0.14468	0.038166	-0.079545
parlare	0.12157	0.29264	-0.25852	0.41798	-0.049089	0.043811	-0.14232	0.080213	0.1322	0.027111	0.035461	0.48728	0.38131	0.16952	0.16284	0.051232	0.081786	0.039841	0.14708	-0.12969	0.29448	0.15522	-0.3318	-0.098739	-0.039054	0.13452	0.48113	0.16604	-0.058978	0.093151	-0.024732	0.30712	-0.013043	-0.17533	-0.021901	-0.096148	-0.1857	0.15323	-0.33161	0.039215	-0.13545	0.29783	-0.12873	0.25255	0.4142	-0.35058	0.17966	0.12356	0.15219	0.079427	0.064411	0.20135	-0.25077	0.34069	-0.3117	-0.38858	-0.18562	0.31346	0.37009	0.070362	0.56332	0.082096	0.18229	0.45679	0.25587	0.12445	0.19558	0.1128	-0.035706	-0.11056	0.23571	-0.11348	0.12196	-0.068849	0.2163	-0.12662	0.16155	-0.033429	0.098735	-0.21276	0.031805	0.081249	0.21676	0.25693	-0.1649	-0.084496	0.040475	0.18936	-0.35856	0.20098	-0.02204	-0.10723	0.29635	-0.20536	0.00073466	-0.078698	0.034052	-0.063668	-0.0022889	-0.097843
scrivere	0.06737	0.45611	-0.52121	0.48653	0.13427	0.097097	0.033238	0.35702	0.29868	-0.23238	0.17481	0.47603	0.16696	-0.28709	0.095794	0.1276	0.18433	-0.15275	0.51847	0.29566	0.2935	0.067218	-0.31417	0.027865	0.15368	-0.14859	0.40961	-0.19234	-0.28168	-0.085117	0.21712	-0.062514	0.27753	-0.026033	-0.33915	0.12099	0.11081	-0.1077	-0.046212	-0.2457	-0.2373	-0.005647	0.035962	-0.034821	0.30573	-0.13389	0.2093	-0.14466	-0.14982	0.2457	-0.11831	0.01551	-0.35147	0.31097	0.01819	-0.57152	-0.073747	0.11668	0.33878	-0.12826	0.58026	0.48558	-0.045817	0.25058	0.5729	0.23573	0.3722	0.20465	-0.44809	0.15641	-0.15811	-0.20809	0.21445	-0.024493	0.20543	-0.237	0.37352	-0.024447	0.17634	0.067246	-0.43801	-0.12563	0.42885	0.20325	0.34845	-0.073565	0.37071	0.079251	-0.063458	-0.096946	-0.046137	-0.012741	0.29746	-0.25664	-0.074443	0.10273	0.024779	-0.037556	-0.07628	0.20573
portare	0.38503	0.37344	0.040612	-0.0032066	-0.1604	-0.13458	-0.21347	0.069672	0.21029	0.06946	-0.080944	0.27939	0.17232	0.10458	-0.11783	0.26006	-0.045064	0.13868	-0.11371	-0.3803	-0.0085969	0.34814	-0.093008	-0.045932	0.08157	-0.13038	-0.028182	0.17524	-0.30451	0.19701	0.17401	0.21506	-0.31294	-0.57126	0.22857	-0.072192	0.023991	-0.32385	-0.1968	0.40025	-0.12856	0.15998	-0.27651	0.12038	0.23932	-0.38117	0.20184	0.033361	-0.25283	-0.14528	-0.61816	0.035269	-0.35096	0.16392	0.00089307	-0.072603	0.028628	0.33928	-0.022369	-0.017163	0.32051	-0.097008	0.285	-0.01073	0.33846	0.053869	-0.088227	0.071708	-0.24627	-0.01144	0.06127	-0.151	0.25125	-0.12433	0.093161	0.10728	0.24027	-0.10718	0.11886	-0.29523	0.17006	0.09728	0.10035	0.36195	0.079111	-0.010548	0.049528	-0.30104	-0.10027	-0.033057	-0.042902	0.14814	0.3891	-0.044353	-0.05457	0.024365	-0.13178	0.26151	-0.11791	-0.068077
prendere	0.14792	0.12842	-0.26267	0.12543	0.011333	-0.28543	0.032171	0.11946	0.34215	0.21807	0.023838	-0.0077062	0.34299	0.015603	0.034539	0.45124	0.33642	0.13185	0.18369	-0.32008	0.12528	0.23968	0.14632	-0.3155	0.18317	-0.0254	0.087633	0.15374	-0.2875	0.00016866	0.244	0.17853	-0.13916	-0.075283	-0.13386	-0.17263	-0.12742	-0.27167	-0.35496	0.3425	-0.18759	0.14135	-0.47046	0.077526	0.54192	-0.14394	0.37613	0.018203	0.11222	-0.15237	-0.53295	-0.11777	-0.37944	0.044538	0.032112	-0.26785	-0.1671	0.23122	-0.054444	-0.08833	0.40117	0.056052	0.21238	-0.078737	0.45781	0.20137	0.37149	0.29656	-0.20657	-0.1929	0.018985	-0.15848	0.069043	-0.15912	-0.086085	0.21544	0.20361	-0.33145	-0.040075	-0.1123	0.00059547	0.038263	0.23856	0.30081	0.1573	-0.12934	0.11172	-0.18572	-0.22675	-0.30185	-0.084651	0.0066604	0.33019	-0.27752	-0.039926	-0.16396	0.12057	0.16545	-0.1404	-0.090188
chiedere	-0.20081	0.36228	-0.38711	0.18258	-0.13532	0.10362	-0.41448	0.27334	0.29249	0.12742	-0.13845	0.12954	0.36055	-0.18852	0.12207	0.17249	0.024174	-0.069928	0.25676	-0.27757	0.28092	0.2864	-0.086829	0.029748	0.21657	-0.1257	0.34141	0.41627	-0.14793	0.19341	-0.19619	0.54504	0.13116	-0.18031	-0.017144	0.16221	0.019497	-0.0054971	-0.53695	-0.018461	0.059427	0.25346	0.09124	0.24896	0.19315	-0.10024	0.4223	-0.00095011	0.0015303	0.25853	-0.0039253	-0.19455	-0.29315	0.21296	-0.29724	-0.30101	-0.38804	0.44313	0.39754	0.23179	0.16449	-0.11112	0.44177	-0.058788	-0.045526	0.006872	0.084033	0.28548	0.04117	-0.38226	-0.036915	-0.23031	0.36104	0.091444	0.080719	0.093519	0.065898	0.003595	-0.17877	-0.21813	-0.067021	0.36166	0.37778	0.54938	0.038823	-0.16592	0.2236	0.02051	-0.34774	-0.3016	-0.071697	0.50108	0.32365	-0.1564	0.027192	-0.29491	-0.10271	0.17388	-0.017774	0.18447
presentare	0.14697	0.32598	-0.40053	-0.076651	-0.47944	0.13972	-0.24085	0.022891	0.36386	0.1906	-0.18204	0.079066	0.31834	0.035641	-0.23339	0.29256	-0.51749	0.19926	0.045447	0.30533	0.1495	0.47982	0.085468	0.3823	-0.25375	0.24849	0.044244	0.21935	-0.14307	-0.007861	0.10934	0.15656	-0.058604	-0.24587	-0.32406	-0.033037	0.1295	-0.18631	-0.45218	0.20459	-0.25654	-0.31477	-0.20964	-0.028025	0.54607	-0.13647	0.34252	0.11303	0.062006	0.10204	-0.23342	-0.080227	0.16257	0.41484	-0.035027	-0.17618	0.20515	0.044257	0.10067	-0.17336	0.39118	0.20269	0.53095	-0.17221	0.41545	-0.18888	0.054542	0.20069	-0.35319	-0.16105	-0.39482	-0.017963	0.1218	-0.23044	0.043521	-0.071205	-0.14807	0.057556	-0.1817	-0.16062	0.1778	0.11992	0.37324	0.3546	-0.062558	-0.24426	-0.34395	0.38008	0.0067425	0.40759	0.11973	0.17724	0.29818	-0.018579	-0.028008	-0.35049	0.020393	-0.061939	-0.39839	-0.043678
arrivare	0.17813	0.096176	0.13355	0.06788	-0.22117	-0.1388	-0.22453	0.35164	0.20796	0.031648	-0.20505	0.26003	0.068571	0.056611	-0.074061	0.27269	0.10262	0.14015	0.1089	0.015671	0.30011	0.2462	-0.15991	-0.17793	0.075143	-0.033163	0.17955	0.12101	-0.19502	0.25512	0.062231	0.37221	-0.0049528	-0.50599	0.06632	-0.16015	-0.28905	-0.46997	-0.17095	0.21352	-0.08598	0.19233	-0.18655	0.088148	0.21905	-0.15059	0.58464	-0.22664	-0.12874	-0.25039	-0.24406	0.27213	-0.15863	0.25061	-0.10753	-0.1286	0.038085	0.56664	-0.16668	-0.20805	0.35181	-0.056698	0.33163	-0.031508	0.20967	0.31283	-0.031949	0.43322	0.037054	0.0066844	0.022847	0.0036013	0.073896	-0.15211	0.15158	0.14815	0.38801	-0.066428	-0.11842	-0.26823	0.17592	-0.037925	0.30641	0.42129	-0.062975	-0.17991	0.060863	-0.0039441	0.04666	0.018099	-0.12628	-0.021877	0.48582	-0.20493	0.04949	-0.030305	-0.13464	0.066006	-0.14394	0.045493
sembrare	0.3041	-0.081176	-0.18058	-0.1717	-0.13529	0.078396	-0.15815	0.40895	-0.10219	0.047091	-0.20934	0.2755	-0.02659	0.070652	-0.029062	0.22428	0.20159	0.11954	-0.11619	0.011415	0.28345	0.2124	-0.11734	0.093774	-0.19882	0.031992	0.352	-0.18122	-0.082412	0.22312	-0.014538	0.21905	-0.17117	-0.20268	0.057569	-0.20603	-0.063866	0.15904	-0.45716	-0.046763	-0.041025	0.42277	-0.1694	0.13045	-0.0097706	-0.12929	0.2922	0.023072	0.065853	-0.0039814	-0.24082	-0.058799	-0.4818	0.26761	-0.0099992	-0.40915	-0.066099	0.16939	0.14794	0.098079	0.33971	0.15697	0.20707	0.22807	0.32228	0.14215	-0.032764	0.3771	-0.051863	0.10347	0.054183	-0.37388	0.10514	-0.1213	0.061598	0.0058186	0.32067	-0.023287	-0.066035	-0.21421	0.051946	0.22249	0.016463	-0.11223	0.072131	-0.2818	0.16827	0.16277	-0.06236	-0.053108	0.02227	-0.27846	0.36352	-0.25603	-0.2173	-0.086832	-0.02958	0.13627	-0.084567	0.14985
tenere	0.13668	0.39481	-0.23238	0.041829	-0.073533	-0.045997	-0.11598	0.09359	0.24342	0.12867	-0.10102	0.025214	0.25462	0.082723	-0.078692	0.5334	-0.15973	0.055864	0.26164	0.12244	-0.23733	0.64528	0.19713	-0.40312	-0.49033	0.13168	-0.02023	-0.042817	-0.15852	0.10165	0.14883	-0.046143	-0.039798	-0.18484	-0.31844	0.024893	0.11109	-0.22717	-0.15391	0.36333	-0.19841	0.029785	-0.31333	0.1522	0.58518	-0.35976	0.30332	-0.22374	0.29326	0.19939	-0.18161	0.038392	-0.319	0.42805	0.31656	-0.24191	-0.17756	0.084171	0.14309	0.26259	0.39198	0.053781	0.28	-0.22656	0.29811	0.030064	-0.29302	0.31855	-0.3002	-0.40699	-0.016125	-0.10581	-0.09229	0.16774	0.19975	0.44348	-0.1737	-0.040586	0.09315	-0.18038	0.2691	-0.18354	0.0015642	0.26146	0.072212	0.22202	0.14492	0.38695	-0.40926	-0.24325	-0.11456	-0.22559	-0.13951	0.018831	-0.20401	-0.32791	0.11851	0.10759	-0.38396	-0.1542
riuscire	0.33103	-0.068658	0.22001	-0.013494	-0.067909	-0.21581	-0.23612	0.60343	0.27676	0.1022	-0.4365	0.093114	-0.34235	-0.13453	0.16741	-0.05377	0.348	-0.20767	0.29241	-0.26517	0.38778	0.24535	-0.14891	0.093818	-0.14312	0.016553	0.21317	0.10308	-0.27765	0.088391	0.15503	-0.067369	-0.077194	-0.14503	0.14661	-0.060023	0.054575	-0.030073	-0.25835	0.095234	-0.12939	0.35463	-0.1552	0.26121	0.21816	-0.13465	0.13355	-0.0727	-0.029943	0.1677	-0.13116	0.31265	-0.42042	0.21246	-0.21712	-0.37701	-0.31727	0.50985	0.014602	0.10434	0.29694	-0.056132	0.13563	0.17744	-0.019106	0.22458	-0.32703	0.55275	-0.39128	-0.16601	-0.19736	-0.27458	-0.078799	0.15017	0.28457	0.096598	0.33522	-0.11995	-0.20578	-0.096793	-0.14425	0.10027	0.10688	0.053919	0.073469	0.011759	-0.11586	0.12899	0.059014	-0.11207	0.19431	-0.076798	0.4154	-0.046901	-0.25226	-0.076573	-0.14844	0.34884	0.34302	0.031729
sentire	0.18536	0.084443	-0.46927	0.038305	0.27081	-0.090857	-0.24867	0.24473	0.11998	0.069214	-0.04755	0.30448	-0.082706	0.087277	-0.034991	-0.067154	0.00496	0.037203	0.32983	-0.2351	0.41486	0.25585	-0.3271	-0.35547	-0.19673	0.0059098	0.36475	-0.049304	-0.0058474	0.12494	0.053542	0.39243	0.097373	0.0075787	-0.4544	-0.16187	0.06832	-0.079816	-0.71642	0.1981	-0.1605	0.41704	-0.14899	0.36148	0.2993	-0.28871	0.18463	0.097592	0.24348	0.15622	-0.017611	0.12591	-0.29934	-0.0074915	0.2163	-0.09931	-0.21043	0.47879	0.14363	0.36643	0.46729	0.06231	0.0044151	0.44238	0.21327	0.30316	0.19777	0.40939	-0.008409	0.19467	-0.13216	-0.25164	0.17719	0.081205	-0.21459	-0.13528	0.43297	-0.13386	-0.10138	-0.33366	0.29453	-0.096457	0.080461	0.13002	0.056988	-0.35253	0.30494	0.22456	-0.53515	-0.14813	0.16096	-0.031939	0.24004	0.1195	-0.08469	-0.28683	0.1559	0.10827	0.22655	-0.22492
credere	0.24279	0.10815	-0.1353	0.071639	0.077813	0.079746	-0.22032	0.44078	-0.011109	0.068193	-0.001033	0.31286	-0.050635	0.0013797	-0.06262	0.22985	0.20724	-0.18997	0.046115	-0.19166	0.11921	0.16563	-0.3091	0.11983	0.020328	-0.074718	0.50678	-0.026461	-0.056015	0.37622	0.033816	0.077709	-0.13894	-0.10399	-0.12523	0.056199	-0.042964	0.025321	-0.41633	0.080129	-0.020438	0.18963	0.14455	0.36236	0.13288	-0.23941	0.25255	0.095955	-0.0030319	0.16581	-0.077748	0.089359	-0.63432	0.20854	-0.12273	-0.42447	-0.24495	0.44625	0.30638	0.21338	0.55551	-0.014827	0.025632	0.35427	0.40718	-0.078827	0.184	0.25289	0.10664	-0.15859	0.2602	-0.45278	0.00060124	0.043253	0.29307	-0.2308	0.19547	-0.2095	0.090326	-0.022945	0.023927	0.18039	0.17748	-0.014121	0.18812	-0.22029	0.05439	-0.036529	-0.24258	-0.077075	-0.033353	-0.13145	0.42083	-0.034197	-0.19356	-0.12109	0.042065	0.059687	0.12067	0.1057
cercare	0.1106	-0.051137	-0.090516	0.24797	0.15549	-0.10665	-0.43722	0.53727	0.22781	0.094574	-0.4992	0.14974	-0.4162	-0.10159	0.27306	-0.11311	0.32845	-0.056553	0.33447	-0.28809	0.15246	0.24133	-0.018895	0.077638	0.1025	-0.0071438	0.23833	0.067794	-0.27102	0.16405	0.060663	-0.18582	-0.10465	-0.20211	0.21011	-0.30798	0.15899	-0.13313	-0.28013	0.020388	-0.03692	0.23733	-0.23584	0.17732	0.24497	-0.23442	0.14405	0.11037	0.31917	0.093193	-0.01789	0.033379	-0.41332	0.025853	-0.229	-0.42098	-0.31541	0.36591	-0.060783	0.35375	0.40513	-0.20613	0.21703	-0.18893	-0.010476	0.326	0.034207	0.091404	-0.089112	-0.18612	0.048067	-0.25559	0.099383	-0.029922	0.30618	0.25933	0.19534	-0.22546	0.058509	-0.32142	0.0091696	0.38661	0.013815	0.13091	0.11507	0.048627	0.015762	0.061571	-0.027329	-0.1514	0.27418	0.15603	0.41509	-0.042531	-0.24277	-0.06203	-0.28851	0.36195	0.13139	0.061255
lasciare	0.30257	0.26391	-0.18244	-0.13035	-0.17184	-0.49315	-0.23858	0.32882	-0.042638	0.22093	-0.17309	0.41537	-0.25035	-0.21982	0.14754	0.16796	0.070578	0.22552	0.10597	0.0030474	-0.04114	0.53515	-0.29575	-0.22264	0.0088454	-0.0886	0.34718	-0.27144	-0.23777	0.26139	0.36556	0.031131	0.0054617	-0.16806	-0.06931	-0.26283	0.21219	-0.15376	-0.1744	-0.0036086	-0.23648	0.27837	-0.33419	0.57689	0.14645	-0.0066479	0.11294	-0.18202	-0.075652	-0.036774	-0.21017	-0.068673	-0.3796	0.21582	-0.19416	-0.36784	-0.147	0.05286	-0.018097	0.03913	0.23261	-0.095001	-0.090023	-0.12294	0.30021	0.48054	0.019152	0.2566	-0.19771	-0.21468	0.10796	-0.25907	0.21094	0.079586	-0.21787	0.12983	0.37864	0.1073	-0.15786	-0.16151	0.2168	0.19898	-0.017126	0.23814	0.13143	-0.22027	0.44594	-0.26416	-0.20161	-0.22336	-0.009503	-0.10472	0.22713	-0.15895	-0.09246	-0.30298	-0.030999	0.165	-0.065493	0.20363
vivere	0.45101	0.43917	-0.09153	0.23807	0.15742	-0.10514	0.13013	0.49727	0.58788	0.23096	0.09525	0.38946	0.10912	0.1435	-0.16014	-0.34129	-0.10288	0.018981	0.12537	-0.049051	-0.12695	0.034349	-0.37647	0.049914	-0.32791	-0.10907	0.31153	-0.17864	0.082898	0.36847	-0.00058639	0.1567	0.03928	-0.3389	-0.55005	0.047289	0.33061	-0.44918	-0.022462	0.014083	0.12803	0.47405	-0.34643	0.23322	0.45493	-0.23461	-0.054757	0.24643	-0.089136	-0.0011198	-0.17333	0.14206	-0.17208	0.084311	-0.0049081	-0.12489	-0.26419	0.38849	0.048028	0.27947	0.88105	0.084503	-0.0075981	0.1867	0.081737	0.79296	-0.0097778	0.099066	0.020609	-0.10668	0.48755	-0.22255	0.040986	-0.19902	0.35201	0.11302	0.10312	0.12327	0.035289	0.03325	0.13578	0.18512	-0.094806	0.015581	-0.22324	0.061188	0.23224	0.1196	0.052465	0.28424	0.051106	-0.098616	0.47995	-0.24701	-0.44959	-0.43316	-0.036195	0.45914	0.24053	0.1238
diventare	0.4409	0.0089384	-0.21077	-0.012832	-0.088917	-0.22274	-0.17856	0.14674	0.29169	0.12986	-0.32202	0.49944	0.14381	0.2071	-0.11613	0.16543	-0.30467	-0.017394	-0.12833	-0.088486	0.069255	-0.0018437	-0.10112	0.04014	-0.1406	-0.062695	0.32696	-0.15811	0.14978	0.1337	-0.035741	0.26435	0.067833	-0.45181	0.092187	-0.31738	0.1899	0.15851	-0.028638	-0.1414	0.12161	0.15721	-0.14532	0.13143	0.45703	-0.28354	0.35142	0.22723	-0.044351	-0.25061	-0.28947	-0.047903	-0.24998	0.030424	0.29676	-0.18014	-0.13449	0.16339	0.05252	0.17646	0.31648	0.12552	-0.06916	-0.045424	0.43594	0.26411	0.13218	0.1721	0.091742	-0.35837	0.10812	-0.73541	0.26564	-0.013447	0.29833	0.2511	0.39855	0.046744	-0.07804	-0.030875	0.20651	0.063792	-0.25884	0.045024	-0.018568	-0.42946	0.086527	0.39407	-0.055059	0.18835	0.27557	-0.2513	0.35711	-0.028986	0.093041	-0.039988	-0.025477	0.12483	-0.14918	-0.45933
leggere	-0.17784	0.23931	-0.80076	0.46506	0.13742	-0.093974	-0.083068	0.18391	0.22796	-0.15193	0.18616	0.25878	0.10726	-0.46038	0.096789	-0.041926	0.18817	0.1276	0.4403	0.10647	0.37146	0.02465	-0.15541	-0.35515	0.24203	0.0034577	0.22003	-0.28569	-0.3121	0.097841	-0.14057	0.01687	-0.10655	-0.23734	-0.24105	-0.32104	-0.073521	-0.0050407	-0.40157	-0.27283	-0.35169	0.16405	0.22796	0.094605	0.12089	-0.3316	0.10436	-0.14561	0.14074	0.21542	-0.13236	0.22473	-0.12998	0.30629	-0.082005	-0.39463	-0.13189	0.28389	0.32719	-0.018153	0.649	0.57544	0.37014	0.24886	0.15164	0.34597	0.34017	0.12116	-0.43631	-0.12225	-0.13585	-0.13527	0.22732	-0.064931	0.24149	-0.32494	0.13201	-0.20835	0.077103	-0.093303	-0.12673	-0.075235	0.59853	0.31056	0.16292	-0.089595	0.47119	0.063147	0.1042	0.09001	0.15187	-0.24328	0.23201	-0.22329	-0.25838	-0.0084303	-0.14711	-0.11151	0.062498	-0.15497
trattare	0.34821	-0.038451	-0.39859	0.28231	-0.17565	0.10997	-0.027732	0.14586	0.20457	0.093894	-0.011987	0.30093	0.20734	-0.0068048	0.021097	0.27978	-0.21514	0.15677	-0.098066	-0.097761	0.24279	0.016384	0.39934	0.20284	-0.052203	-0.085299	0.14175	0.14156	-0.089607	-0.17369	0.16258	-0.12194	-0.02213	-0.16007	0.022253	-0.14684	-0.13697	0.13309	-0.11372	0.044452	-0.12488	-0.018748	-0.054298	0.24165	0.30933	-0.24857	0.31669	-0.045478	0.037968	0.13674	-0.27716	-0.20161	-0.15881	0.30798	-0.17211	-0.41224	-0.10625	0.034771	0.028952	0.024741	0.39236	0.10904	0.37072	0.31048	0.39908	-0.00155	0.08163	0.10646	-0.16012	-0.074053	-0.019065	-0.34742	0.097403	-0.060627	0.18205	-0.080841	0.028193	0.038385	-0.030178	-0.031543	0.08179	0.37789	0.18226	0.15135	-0.12232	-0.070221	-0.207	0.19734	-0.26811	0.28351	0.12747	-0.11433	0.12861	-0.45897	-0.32181	-0.1481	-0.13355	-0.051879	-0.17617	-0.18958
passare	0.21226	0.14339	-0.013514	0.099671	-0.029855	-0.46976	-0.21204	0.41005	0.13359	0.19087	-0.14002	0.28716	-0.014735	0.25099	0.050126	0.18909	-0.10038	0.18799	0.084105	-0.12595	-0.062187	0.10139	-0.31817	-0.22889	0.081868	-0.078386	0.30131	0.060671	-0.29569	0.21188	-0.09983	0.29312	-0.22982	-0.36625	0.21394	-0.26069	-0.042859	-0.28359	-0.12261	0.041535	-0.1737	0.042018	-0.36634	0.27986	0.43334	-0.27124	0.37681	-0.17315	-0.090066	-0.22327	-0.32534	0.059687	-0.19349	0.38005	-0.13024	-0.18297	-0.062084	0.24251	-0.08381	-0.29634	0.2792	-0.037812	0.15243	0.16069	0.26173	0.33195	0.014194	0.21897	-0.062476	0.075807	0.11249	0.0029455	0.20246	0.0024904	0.17038	0.060077	0.41196	0.085338	-0.024276	-0.1877	0.035616	-0.20079	0.27938	0.23533	-0.13358	-0.15524	0.16204	-0.021903	-0.06359	-0.1017	-0.15102	0.031248	0.25992	-0.1122	-0.080184	-0.1215	-0.1284	0.055899	-0.10638	-0.13103
rendere	0.48604	0.20372	-0.40736	-0.37653	-0.23493	-0.038546	-0.13422	0.06522	0.13778	0.1589	-0.009476	0.35427	-0.032048	0.12642	-0.19143	0.42259	-0.18575	-0.071852	0.0035417	-0.11101	0.069389	0.31951	0.031929	0.08188	-0.51063	-0.0094847	0.29652	-0.15159	-0.093613	0.31592	0.2476	0.19814	0.16365	-0.6321	0.21432	0.050797	0.019216	0.10376	-0.2595	-0.15653	0.24143	0.42635	0.074275	0.10948	0.12136	-0.34396	0.21901	-0.058024	-0.13653	0.10423	-0.17918	-0.14792	-0.10531	0.13249	0.11769	-0.026058	-0.071019	-0.094102	-0.050443	0.071121	0.44151	0.45292	0.36255	-0.27241	0.19465	-0.035245	-0.040878	0.3609	-0.11492	-0.33707	-0.35711	-0.59212	0.21762	0.16878	0.30915	0.052344	0.12766	-0.2442	-0.12218	-0.29143	0.16703	0.10962	0.15634	-0.11919	0.076804	-0.23608	0.078826	0.44043	-0.34167	0.26557	0.50068	-0.33686	0.043596	0.24944	-0.36389	-0.32647	-0.17789	0.0098876	-0.21136	-0.43273
ricordare	0.19501	0.16349	-0.38571	0.085242	-0.1713	-0.059221	-0.069481	0.26892	0.19124	-0.03957	0.041283	0.47108	0.41537	0.025921	-0.20335	0.10995	0.083369	0.13825	0.1104	0.13149	0.011106	0.30639	-0.34526	-0.093064	0.057955	-0.17715	0.15731	0.21718	-0.021101	0.24441	0.062148	0.31578	0.013379	-0.063694	-0.218	0.029573	0.06673	0.41903	-0.33698	-0.082297	-0.053934	0.3084	-0.014639	0.24644	0.21444	-0.20656	0.16901	0.070941	-0.048843	0.067591	-0.3658	-0.123	-0.32111	0.51024	-0.017351	-0.28582	-0.25844	0.30449	0.26553	-0.27259	0.36265	0.28753	0.19248	0.2347	0.12354	0.075695	0.18601	0.21237	-0.2679	-0.17374	-0.021916	-0.039811	0.31382	0.033685	0.2456	-0.18324	0.14592	0.067988	0.075084	-0.084137	-0.091247	-0.019076	0.25061	0.41631	-0.11491	0.17735	-0.01715	0.11643	-0.35532	-0.17747	-0.031756	-0.023183	0.2959	-0.17978	-0.14265	-0.16096	-0.0076641	-0.0083297	-0.07244	-0.019639
capire	0.28922	0.31434	-0.23749	0.25295	0.092806	-0.067651	-0.06637	0.54699	0.0047091	0.14259	-0.22252	0.069264	0.081151	0.085523	0.104	-0.19353	0.33745	-0.14743	0.46441	-0.094827	0.39192	0.029884	-0.14308	-0.01419	0.038331	-0.11243	0.4872	-0.0039878	0.0099775	0.17246	0.13118	0.060824	-0.02839	-0.14826	0.081364	0.028807	-0.13941	0.024955	-0.41818	0.047005	-0.024641	0.28503	-0.046139	0.42236	0.25589	-0.34129	0.22444	0.040894	0.13345	0.16148	-0.0047944	0.31962	-0.43467	0.36456	-0.10995	-0.35012	-0.35756	0.43635	0.35465	0.14456	0.62156	-0.033219	0.04353	0.29244	0.38997	0.0074118	0.031301	0.3332	0.086737	-0.047246	0.10714	-0.27322	0.10212	0.011304	0.23058	-0.14314	0.20272	-0.261	0.053075	-0.21062	-0.14941	0.226	0.20245	0.25137	0.12004	-0.11355	0.24407	0.057874	-0.31934	-0.071346	-0.045755	-0.24594	0.44787	-0.10572	-0.19066	-0.039986	0.040927	0.093459	0.061454	-0.13569
conoscere	0.19611	0.43797	-0.38568	0.48852	0.007764	-0.02906	-0.077519	0.19916	0.46563	0.14244	-0.065155	0.26639	-0.15274	0.2439	-0.030215	-0.056202	0.030482	-0.068166	0.18375	-0.021274	0.19636	0.20483	-0.35557	-0.12491	0.10539	-0.043857	0.29402	-0.043947	-0.14647	0.28196	0.18743	0.11846	-0.065046	-0.14968	-0.25918	0.003446	-0.049715	0.062078	-0.21524	0.016212	0.11927	0.07024	0.088416	0.32216	0.42707	-0.23755	0.0094364	0.059256	-0.15152	0.18964	-0.13385	0.077225	-0.27075	0.41807	-0.013001	-0.22633	-0.30314	0.29195	0.18491	-0.0027786	0.75571	0.079388	-0.044837	0.10165	0.1563	0.054159	0.095028	0.29718	0.32643	-0.15695	0.051306	-0.20443	0.25282	-0.14193	0.43037	-0.10644	0.23562	-0.21437	0.033413	-0.20693	-0.31854	0.29539	0.18008	0.20405	-0.21237	0.099152	-0.19962	-0.06114	-0.1106	0.10659	0.11601	-0.14038	0.47975	-0.097577	-0.21741	-0.31337	0.030977	0.044518	-0.040521	-0.19588
seguire	0.024937	0.12772	-0.47658	0.16562	-0.33131	0.06534	-0.37687	0.18233	0.1872	0.029327	-0.18579	0.099536	0.15871	0.13549	0.33189	0.22054	0.16719	0.16512	0.020491	0.054573	-0.18787	0.14645	-0.15347	-0.33443	0.10656	-0.22311	0.071835	-0.0073803	-0.37888	0.303	0.0014806	0.032157	-0.00004402	-0.18383	-0.0033819	-0.19239	-0.15655	-0.29357	-0.11208	0.018816	-0.18754	-0.28252	-0.061377	0.13721	0.38085	-0.57864	0.27441	0.097198	-0.1769	-0.090324	-0.64707	-0.1517	-0.23791	0.13595	-0.029064	-0.037098	0.047065	0.16307	-0.0042302	-0.24163	0.34678	-0.035421	0.075258	-0.050654	0.14169	0.1666	-0.19162	0.076423	-0.047709	0.02859	-0.16861	-0.15943	0.25288	-0.17813	0.067339	0.070245	0.25039	0.019454	0.10155	-0.37318	-0.021216	0.056576	0.30878	0.39725	0.082977	0.047856	0.02875	0.23766	-0.14495	0.11023	-0.036426	0.091966	0.22056	-0.16917	-0.40661	-0.29778	-0.18549	-0.081815	-0.0092319	0.050098
continuare	0.12025	0.060868	-0.23092	0.41447	-0.1064	-0.038586	-0.33037	0.29279	0.072318	-0.046883	-0.30821	0.20775	-0.056579	-0.050621	0.16127	0.1112	-0.031654	-0.19707	-0.053374	-0.20883	0.051659	0.34841	-0.37513	-0.30265	-0.15519	-0.23704	0.20365	0.021659	-0.14485	0.12048	0.047798	0.19351	-0.067269	-0.21343	-0.024989	-0.016004	0.17087	-0.076608	-0.15914	0.043804	-0.080709	-0.018255	0.16578	0.14205	-0.010918	-0.30887	0.20776	0.083396	0.069012	0.14371	-0.54407	-0.056341	-0.46785	0.0032731	-0.36995	-0.367	-0.29044	0.29618	0.15418	0.094143	0.22834	-0.21295	0.12214	0.14881	0.018144	0.24749	-0.041096	0.25045	-0.2997	-0.099044	0.29041	-0.05999	0.063413	0.28265	0.18368	0.24018	0.067304	0.2003	-0.33908	-0.20053	0.093923	0.072042	0.13112	0.20454	-0.070096	0.10184	0.27825	0.17222	0.066716	-0.12408	0.15201	0.007855	0.36863	-0.18576	-0.14198	-0.16431	-0.34758	-0.16812	0.29337	-0.0061549
riguardare	0.084598	0.54983	-0.31305	0.27652	-0.3469	0.1212	-0.282	0.038724	-0.037338	-0.073683	-0.093978	0.085895	0.24224	0.088844	-0.13342	0.31986	-0.1918	0.080905	-0.10131	-0.07681	0.12835	0.022782	0.044752	-0.047913	0.099821	0.016816	0.14325	-0.088854	0.02973	0.1094	-0.31098	0.21625	-0.09214	-0.088296	0.085672	-0.12769	-0.23319	0.1102	-0.33746	0.023367	-0.10501	0.12705	-0.20982	0.5977	-0.0034374	-0.51008	0.4647	0.18104	-0.29707	0.039602	-0.22186	-0.35221	-0.3186	0.40132	-0.33033	-0.35176	-0.143	-0.15442	-0.0022244	-0.013389	0.46264	0.044803	0.53532	0.38144	0.22384	-0.058808	0.13289	-0.0084233	0.128	-0.25516	-0.29363	0.028514	0.046448	-0.053918	-0.048	-0.31267	-0.20011	-0.18382	0.07117	0.029253	0.07627	0.40505	0.3805	0.32341	-0.24831	0.1992	-0.049103	-0.10367	-0.32016	0.20613	0.11431	-0.19931	0.038421	-0.50454	-0.41569	-0.17847	-0.2297	-0.14098	-0.21463	-0.20017
considerare	0.25404	0.13182	-0.30319	-0.19361	-0.14232	0.17918	-0.097023	0.15861	0.27723	0.064827	0.026605	0.31512	0.20112	0.17304	-0.26556	0.33604	-0.30647	0.20664	-0.24045	-0.21122	0.051112	0.070235	-0.061054	0.019117	-0.1296	-0.03391	0.25082	0.12771	-0.00044492	-0.035237	0.0046764	0.041269	0.081246	-0.1905	-0.060086	-0.14995	-0.045076	0.089032	-0.15854	0.040193	0.04469	-0.034467	0.055529	0.17461	0.19961	-0.15039	0.48896	0.15776	-0.0016931	-0.039818	-0.20696	-0.31819	-0.26842	0.21718	0.11145	-0.18633	-0.10442	0.13065	-0.0054646	-0.050285	0.50657	0.21333	0.14413	0.41608	0.43942	-0.099888	0.063544	0.15342	0.080013	-0.39162	-0.053258	-0.68224	0.13853	-0.11511	0.27356	-0.10806	-0.053286	-0.3895	0.07617	-0.073065	0.16758	0.39288	0.13241	-0.14902	-0.21724	0.060934	0.16452	0.29381	-0.082857	0.037864	0.050698	-0.14813	0.2376	-0.25074	-0.22083	-0.21483	0.051435	-0.015636	-0.23258	-0.38914
utilizzare	0.3949	-0.059736	-0.042646	0.051692	0.042808	-0.41953	-0.031323	0.012853	0.22589	0.28995	-0.26466	0.087081	0.018798	-0.29952	-0.042886	-0.0048352	-0.09964	-0.14094	0.0032652	-0.027448	0.41589	0.19147	0.059378	0.083974	0.058685	-0.2027	-0.01968	-0.01637	-0.071092	-0.22267	0.19678	-0.37255	0.025522	-0.13809	0.25961	0.082344	-0.2725	-0.21748	-0.059499	-0.021365	0.34254	-0.16329	-0.22046	0.076533	0.23368	-0.36211	0.18842	-0.11406	0.17037	0.26185	-0.63877	-0.21042	-0.14705	0.5818	-0.31612	-0.34793	-0.18509	-0.31101	-0.17411	-0.27861	0.35123	0.028869	0.63356	0.27732	0.42196	0.40139	0.0023801	-0.28125	0.012351	-0.3465	-0.20736	-0.37681	0.3991	0.043597	0.20655	0.33255	0.049203	-0.38717	0.051388	-0.14384	0.074331	0.34431	0.28558	0.1186	0.21474	0.3156	-0.23986	0.26068	-0.26436	0.41445	0.020109	0.028824	0.021307	0.18212	-0.32185	-0.063127	-0.33828	-0.34894	-0.38692	-0.45516
realizzare	0.42936	0.12999	0.0081869	-0.232	-0.093022	-0.20852	-0.16584	0.1425	0.43463	0.22576	-0.26457	0.32218	0.12504	-0.056333	-0.49731	0.12471	-0.2866	0.063721	0.073763	-0.052909	-0.052776	-0.0070028	0.15374	0.30014	-0.20557	-0.038923	0.070273	0.22124	-0.21229	0.51067	-0.25719	-0.1202	-0.14782	-0.41929	-0.079182	0.061114	0.27859	-0.47362	-0.15869	0.13879	-0.15707	-0.016466	-0.086641	-0.022514	0.40675	-0.077241	0.050844	-0.056061	-0.32499	0.0048752	-0.51819	-0.063522	-0.1427	0.11651	-0.25455	-0.42549	-0.2169	0.086682	0.03249	-0.039599	0.57192	0.37299	0.41194	0.055825	0.44664	-0.086764	0.0045013	-0.42155	-0.10211	-0.04786	-0.51514	0.0073237	0.090346	-0.094768	0.13535	0.2783	0.12762	0.27413	-0.03098	-0.09328	-0.2644	0.39734	0.18058	0.31639	0.2758	0.18998	-0.40266	0.33471	-0.10915	0.48214	0.43612	0.055672	0.31113	-0.15228	-0.38942	0.054759	-0.30378	-0.51835	0.038111	-0.29119
svolgere	0.46677	0.55971	0.014628	0.18001	-0.050936	0.16736	-0.15093	0.063056	0.52929	0.069782	-0.58226	0.2126	0.37068	0.05807	-0.37949	0.076343	-0.41621	0.47511	0.0060853	0.22861	-0.18948	0.12261	0.0074393	-0.098906	-0.36371	0.17968	-0.16788	-0.046386	-0.35038	-0.11576	-0.14584	-0.042025	0.22773	-0.3345	-0.4966	0.32687	-0.078342	0.16559	0.11124	0.42718	-0.052825	-0.19958	-0.070687	0.0075858	0.66076	-0.73315	0.61042	0.043908	-0.16546	0.14293	-0.35488	-0.15772	-0.29939	0.29464	0.12959	-0.20407	-0.28258	-0.043806	0.041035	-0.25934	0.32965	-0.15948	0.36076	0.056975	0.28959	0.3453	0.032845	0.16258	-0.34334	-0.31059	0.11424	0.015763	-0.15426	-0.028113	0.20671	0.54753	-0.23435	0.17233	0.34575	-0.10642	0.14085	0.16263	0.49438	0.02144	0.34376	-0.14453	-0.39075	0.21245	-0.24812	0.026519	0.021133	-0.31141	-0.45557	-0.23473	-0.58769	-0.5587	-0.0080058	-0.27618	-0.12434	-0.27875
chiamare	0.1784	0.18281	-0.14575	0.20724	0.10747	0.10445	-0.13414	0.016831	0.49321	0.0053815	-0.062166	0.26975	0.27254	0.039891	0.021523	-0.094299	-0.13785	-0.099458	0.22067	0.011987	0.23041	0.18795	-0.33292	0.10013	0.096785	0.024572	0.14673	0.19697	-0.030843	-0.14613	0.18973	0.26359	-0.15885	0.082806	-0.13042	-0.18952	-0.19227	-0.092992	0.013906	-0.15013	0.15929	0.15567	0.14414	0.23845	0.51832	-0.27677	0.17179	0.03198	-0.22534	0.13895	-0.22475	-0.22049	-0.26516	0.3146	-0.15316	-0.1525	-0.12437	0.34547	0.059335	0.027779	0.20377	-0.093443	-0.0090379	0.26337	0.2807	0.14383	0.27459	0.17567	0.1168	-0.073447	0.16712	-0.36185	0.21278	-0.32072	0.43196	0.052729	0.24136	0.092534	0.046554	-0.23801	-0.020481	0.033096	-0.066752	0.41266	0.23072	-0.2729	-0.25652	0.23528	-0.46564	-0.15415	-0.11543	0.23998	0.36729	-0.19054	0.25382	-0.14189	-0.006792	0.0053601	-0.33437	-0.14826
creare	0.33599	0.22762	0.056856	0.0020458	-0.27521	-0.35529	-0.19112	0.18276	0.31816	0.068251	-0.47144	0.096791	-0.23795	-0.16585	-0.15522	-0.26626	-0.2822	0.039387	0.32313	0.096535	0.11473	0.11138	-0.011462	0.31079	-0.2405	0.0063474	0.15912	-0.064501	0.18829	0.12984	-0.082818	-0.067882	-0.029125	-0.28084	0.41826	-0.18647	0.26076	-0.026079	-0.2246	0.20286	0.15979	0.18422	-0.25566	0.083756	0.49474	0.039361	-0.089598	-0.18392	-0.23812	-0.056266	-0.41773	-0.16373	-0.36565	-0.082219	-0.22894	-0.25583	-0.24649	0.10107	-0.26381	0.2501	0.52271	-0.042122	0.2187	0.11096	0.36738	-0.024147	0.24789	-0.40642	-0.19308	-0.056306	-0.22605	-0.42471	0.31599	-0.043907	0.36667	0.0044916	0.3384	0.12526	0.02966	-0.25139	-0.073069	0.26267	-0.013119	0.40364	-0.057084	-0.11929	0.28328	0.50904	-0.21128	0.50821	0.57608	-0.24714	0.32093	-0.18206	-0.043182	0.015822	-0.35356	0.22638	-0.10043	-0.15958
usare	0.37098	-0.20198	-0.039991	0.39635	0.226	-0.43531	0.098506	0.081717	0.16986	0.22299	-0.0024725	0.26751	0.17875	-0.15644	0.15767	-0.10781	0.092806	-0.3251	0.11295	-0.24034	0.32925	0.18729	-0.0040058	0.084048	0.21645	-0.093832	0.15063	-0.089374	0.00037449	-0.18651	0.24954	-0.33747	-0.097387	-0.11924	0.27793	0.021796	-0.33562	-0.097951	-0.064825	-0.14465	0.25279	-0.0094949	-0.35247	0.0049327	0.31458	-0.23657	0.17459	-0.10734	0.38032	0.16936	-0.5747	0.023558	-0.34443	0.53399	-0.33225	-0.48268	-0.28792	-0.10838	0.060095	-0.22013	0.39663	0.0187	0.45287	0.34046	0.42854	0.36591	0.22355	-0.065608	-0.050749	-0.35373	0.10139	-0.502	0.42879	0.118	0.25527	0.081637	0.4444	-0.37418	0.28612	-0.21687	-0.073239	0.19571	0.098023	-0.026362	0.18527	0.1412	-0.047876	0.21431	-0.50249	0.15608	-0.24406	-0.039832	0.053275	0.20643	-0.096196	-0.038757	-0.29118	-0.2573	-0.36231	-0.26389
rappresentare	0.63929	0.34443	-0.056139	-0.063291	-0.22274	0.13903	-0.24355	0.16194	0.27283	0.091658	-0.26036	0.13781	0.29543	0.23218	-0.33792	0.11533	-0.45648	0.31384	-0.15945	-0.17578	-0.097532	0.010085	0.077845	0.34079	-0.11021	-0.27854	0.073486	0.037063	0.15785	-0.10007	-0.10343	0.15721	0.10593	-0.23805	-0.096265	-0.27768	0.13798	0.025428	-0.10703	0.14617	-0.014614	0.082123	-0.19851	0.16025	0.28402	-0.33122	0.18758	0.1853	0.00071577	-0.28066	-0.49201	-0.19697	-0.050784	0.044939	0.40282	-0.049351	-0.23195	0.062836	-0.0018223	-0.21406	0.42251	0.16297	0.48828	0.19724	0.38755	-0.27853	0.2547	-0.10543	-0.28159	-0.17583	-0.31184	-0.43018	0.21329	-0.042762	0.42421	-0.040361	0.10965	-0.31318	0.12687	-0.080884	0.18929	0.27422	0.20349	0.086984	-0.19663	-0.007901	-0.27824	0.29429	-0.18132	0.34019	0.079681	-0.048541	0.55639	-0.40082	0.0064208	-0.25996	0.21433	-0.098307	-0.19015	-0.24115
aprire	0.3801	0.25897	-0.043174	0.60505	-0.087379	-0.30273	-0.61637	0.28731	0.18086	0.15433	-0.31969	0.3096	0.14398	-0.16764	-0.2108	0.19912	-0.27826	0.46634	0.16574	0.23261	-0.01327	0.50707	-0.042934	-0.0083344	0.016887	-0.14805	-0.34539	-0.22168	0.039139	0.23941	-0.13368	0.39045	-0.17111	-0.45073	-0.02068	-0.32297	0.20118	-0.21766	-0.32745	0.11612	-0.4278	-0.29362	-0.01151	0.37368	0.24214	-0.21653	0.18567	-0.25792	0.074286	0.22433	-0.099012	0.1529	-0.030827	0.31597	-0.11812	-0.48313	-0.14565	0.095918	-0.041924	0.11296	0.26155	-0.24812	0.38484	-0.18541	0.33052	0.10256	-0.036348	0.093953	-0.25559	-0.044472	0.025774	-0.20158	0.20818	-0.002756	0.17146	0.42684	0.1436	0.27574	-0.069252	-0.28654	0.28109	-0.12899	0.2383	0.41885	0.2167	-0.13773	0.24869	0.31619	-0.27062	0.16206	0.26551	-0.37669	0.010391	0.069386	0.16689	-0.043889	-0.073508	0.1368	-0.35312	0.16291
nascere	0.28534	0.43882	-0.21862	0.11266	-0.16404	-0.099464	-0.022334	0.37536	0.71678	-0.19699	0.02652	0.54949	0.33464	0.024387	-0.251	0.090945	-0.26948	-0.12614	-0.15786	0.20551	0.054168	-0.00511	-0.24484	0.12325	-0.355	-0.064302	0.15407	-0.16876	-0.14859	0.1689	0.14785	-0.10141	0.13616	-0.15298	-0.30793	-0.053366	0.422	-0.32514	-0.049903	0.29568	-0.10771	-0.016405	-0.47314	0.18101	0.33159	-0.16454	0.17643	0.13505	-0.33943	0.085318	-0.42782	0.10298	-0.16781	0.043566	-0.076313	-0.018763	-0.37254	0.37569	-0.037343	0.22414	0.30963	0.013529	0.061264	0.037625	0.12465	0.15748	0.47348	-0.082092	0.097929	0.060437	0.0023812	0.061823	0.046148	-0.49137	0.16078	0.23765	0.34734	0.20932	-0.050697	-0.1761	-0.44541	0.045689	-0.014043	0.19061	0.070937	0.038111	-0.12255	0.34617	-0.19684	0.38732	0.14008	-0.36557	0.72906	-0.32767	-0.00082169	0.070185	-0.26834	0.45751	-0.39021	-0.19057
tornare	0.070492	0.19854	-0.11013	0.19754	-0.07607	-0.094669	-0.11543	0.3924	0.06078	0.19422	-0.11062	0.41859	-0.05248	-0.10296	-0.0015647	0.054609	0.14325	0.10397	-0.027725	-0.0039431	-0.092804	0.40979	-0.43067	-0.23354	-0.053566	-0.023146	0.19477	-0.28405	-0.2219	0.37391	0.11346	0.046909	-0.30263	-0.37545	-0.20658	-0.31998	0.10887	-0.2174	-0.10808	0.081621	0.013234	0.2203	-0.45853	0.093421	0.36027	-0.425	0.45482	-0.036918	0.028493	-0.011526	-0.18654	0.17122	-0.22829	0.10684	-0.22979	-0.43278	-0.059286	0.61194	0.012207	-0.20192	0.40562	-0.023079	0.14617	0.065827	0.047502	0.41999	-0.08859	0.43752	-0.095262	-0.34798	0.40005	0.14507	0.13309	-0.12127	0.16066	0.24671	0.09987	0.18566	-0.11969	-0.17144	0.18824	-0.01048	0.035356	0.56559	0.067225	-0.096604	0.10818	0.080306	0.16	-0.32519	-0.15015	0.046596	0.30566	-0.22795	0.031199	-0.23234	0.0411	0.20381	0.030993	0.076067
rimanere	0.41474	0.25912	-0.31336	-0.19514	-0.34357	-0.41155	-0.1751	0.15958	-0.11383	0.05844	-0.068907	0.37131	-0.24594	0.076994	0.029405	0.24496	-0.30002	0.3648	-0.20315	0.090888	-0.21713	0.38748	-0.3219	-0.17406	0.011907	0.21748	0.35724	-0.37786	0.023169	0.40327	0.12067	0.21188	-0.0047886	-0.1872	-0.26752	-0.28661	0.39288	-0.25486	-0.19881	-0.056479	-0.27155	0.27109	-0.21066	0.38656	0.066009	-0.27378	0.17792	-0.29095	-0.14081	0.074241	-0.069597	-0.040258	-0.25348	0.44988	-0.17091	-0.2576	-0.2058	0.059239	-0.0019693	-0.067877	0.050113	0.18717	0.14535	0.26318	0.26556	0.36875	-0.16922	0.61279	-0.01624	-0.46747	0.21791	-0.42354	-0.082995	0.14115	-0.050158	0.26313	0.34578	-0.074485	-0.48654	-0.024465	0.26519	0.10736	-0.15378	0.088287	-0.094424	-0.18395	0.32183	0.015815	-0.081431	-0.2	-0.01563	-0.20099	0.16339	-0.094607	-0.20515	-0.35188	0.015849	0.027677	-0.16661	0.010642
permettere	0.37525	0.085633	0.16073	0.040078	-0.02457	-0.17603	-0.54833	0.2441	0.32118	0.27311	-0.10999	-0.22462	-0.20562	-0.10351	0.15639	0.0097163	0.065184	-0.04566	0.25036	-0.25496	0.46481	0.29205	-0.11068	0.074603	-0.11946	-0.35193	0.25219	0.035461	-0.2967	-0.01285	0.08491	0.19732	-0.18068	-0.38568	0.37679	-0.066594	-0.030728	-0.053296	-0.11433	-0.16271	0.076819	0.18025	-0.047265	0.42254	0.21498	-0.12561	0.096671	0.14931	-0.085358	0.23289	-0.42507	-0.15442	-0.32754	0.093093	-0.2076	-0.22328	-0.27866	0.057925	-0.013002	0.26164	0.20239	-0.13402	0.61539	0.067784	-0.094731	-0.034371	-0.22736	0.0093206	-0.23773	-0.26579	-0.24441	-0.29234	0.21904	-0.03796	0.30099	0.17814	0.12302	-0.081052	0.1054	-0.1379	-0.081082	0.33911	0.31284	0.30776	-0.080588	0.27104	-0.0019625	0.2069	-0.11776	0.24062	0.049434	-0.12918	-0.13575	0.20541	-0.37418	-0.078418	-0.27181	0.13571	0.095885	-0.1313
parere	-0.16652	-0.18498	-0.46125	-0.34526	-0.16228	0.14476	-0.37347	0.18194	0.24719	-0.077194	-0.10625	0.073445	-0.0088116	-0.090013	-0.038206	0.64154	-0.037367	-0.044616	-0.084626	-0.32682	0.33391	0.00086717	-0.27807	-0.046774	-0.48415	0.2796	0.41782	-0.011093	-0.21104	0.073558	-0.080333	0.2643	0.091716	-0.012818	-0.35375	-0.22183	0.026369	0.10774	-0.6517	0.19751	0.088279	0.19541	0.051896	0.2499	0.16627	0.12016	0.32905	-0.039116	0.037283	0.06771	-0.057908	-0.15928	-0.30686	0.25108	-0.1449	-0.28947	0.056941	0.071756	0.36883	0.19989	0.38055	0.34568	0.18399	0.024207	0.288	-0.11349	0.14732	0.36086	-0.1812	0.36905	-0.10987	-0.25236	0.37403	-0.0089225	-0.17858	-0.1983	0.033215	-0.21293	0.017032	-0.19395	-0.08069	0.1608	0.33746	0.0064523	0.18752	-0.34968	0.2938	0.13843	-0.31766	-0.45321	0.018838	-0.087769	0.26383	-0.21582	-0.47561	-0.26712	-0.11613	0.066183	-0.085278	0.0033281
esistere	0.046261	0.19663	-0.071037	0.20959	-0.088593	-0.032656	-0.091263	0.28778	0.19061	0.19607	-0.027384	0.11718	-0.012117	-0.038832	-0.14697	0.26501	-0.033969	-0.093144	0.096671	-0.32934	0.11926	-0.005642	-0.35652	0.43583	0.047922	-0.047537	0.16499	-0.046729	0.27685	0.060907	-0.035222	0.081665	-0.052097	-0.10324	-0.11064	-0.31116	-0.099561	-0.081224	-0.036687	0.15482	0.001484	0.062855	0.080616	0.25066	0.2368	-0.1851	0.20327	-0.032819	-0.38911	0.10327	-0.14274	-0.1536	-0.45341	0.40275	0.084257	-0.29432	-0.22804	0.21858	0.094691	-0.037322	0.38325	0.13896	0.64158	0.43496	0.44729	0.062888	0.033605	0.0179	0.14651	-0.020329	0.4465	-0.26927	0.15756	-0.18546	0.36304	-0.081802	0.13091	-0.15619	-0.12905	0.094127	0.042733	0.40925	0.016499	-0.053818	-0.39764	0.13822	0.20772	0.30546	-0.41006	0.48962	0.25824	-0.29824	0.36141	-0.17641	-0.25563	-0.14497	-0.21239	-0.0041271	-0.14629	-0.16212
entrare	0.28062	0.27719	-0.002382	0.48199	-0.084606	-0.52941	-0.15349	0.086849	0.48611	0.08366	-0.29405	0.1087	0.032824	0.049248	-0.20791	-0.1554	0.20044	0.35715	0.2554	-0.12618	0.035752	0.23572	-0.43298	-0.35419	0.066756	-0.032257	-0.17483	-0.15376	-0.27796	0.40679	-0.12915	0.14391	-0.089947	-0.29983	-0.27818	-0.4862	0.15604	-0.14879	-0.17885	0.18398	-0.088349	0.010288	-0.48619	0.34738	0.48133	-0.18037	0.2765	0.025766	-0.06295	0.16148	0.0029049	0.015618	-0.23706	0.3976	-0.12601	0.057862	0.075224	0.39318	-0.086387	-0.096137	0.037789	0.15474	0.24534	0.21883	0.3269	0.17422	-0.062024	0.26193	0.12986	-0.39917	0.2702	-0.36439	0.088624	-0.048777	-0.034179	0.25749	0.097774	-0.12567	0.042044	0.11032	-0.035046	-0.11317	0.18966	0.27566	0.13309	-0.34225	0.34091	0.19904	-0.3775	-0.038146	0.17373	-0.28903	0.41127	-0.064086	0.21795	-0.056622	-0.34994	0.06757	-0.22819	-0.081886
partire	0.39728	0.29077	-0.00050713	-0.17343	-0.17617	0.077539	-0.13637	0.363	0.12911	-0.055887	-0.14365	0.021808	0.21605	-0.0049429	-0.1819	0.22676	-0.0078379	0.16479	-0.033839	0.064923	0.13571	0.38487	0.05162	-0.25924	-0.15917	-0.39242	0.16901	0.014366	-0.20614	0.0017734	0.025153	0.20444	-0.25939	-0.28543	-0.12268	-0.16128	-0.049601	-0.50306	-0.014419	0.12906	-0.09617	-0.30168	-0.29315	0.071677	0.47004	-0.39226	0.60843	-0.15796	-0.12371	0.064201	-0.39808	0.037913	-0.063173	0.12932	-0.31711	0.052508	0.044179	0.21129	-0.27864	-0.29967	0.2462	0.063539	0.25665	-0.1061	0.41563	0.2376	0.15626	0.16895	-0.048959	-0.17047	0.077051	-0.041617	-0.24212	-0.30473	0.12666	0.2465	0.20823	-0.0070631	-0.075245	-0.28926	-0.02936	-0.0082687	0.44053	0.41902	0.2547	0.18638	-0.0774	0.13877	0.034179	0.017915	-0.02245	-0.16595	0.34407	-0.29258	-0.17924	0.15268	-0.14062	0.075036	-0.17493	-0.12144
lavorare	0.11908	0.31189	0.04935	0.42481	-0.00081223	-0.48913	0.18067	0.2755	0.49239	0.12614	-0.60599	0.57929	-0.002884	0.27892	-0.058257	-0.30872	-0.55712	-0.064548	0.37647	-0.40081	0.069457	0.15182	-0.22898	-0.05992	-0.16458	0.16924	0.3562	0.15738	0.0074754	0.21894	0.073026	-0.30582	-0.086011	-0.24771	-0.10955	0.19986	0.30243	-0.35066	-0.073009	-0.063793	-0.074773	0.069565	-0.19689	0.16198	0.59889	-0.3903	0.42219	-0.087992	-0.46785	0.25288	-0.39623	0.060698	-0.27547	-0.0084566	-0.28094	-0.42782	-0.30789	0.18208	0.47697	0.12051	0.4774	0.15059	0.029644	0.0068088	0.14163	0.47905	0.05479	0.12522	0.022773	-0.3078	0.29184	0.044256	-0.040908	-0.10295	0.15782	0.39024	-0.13532	0.11149	-0.14219	-0.27349	-0.15897	0.18143	0.25153	0.33181	0.12351	-0.09335	0.047795	0.25133	-0.0058404	0.096039	-0.074037	0.34148	0.28401	-0.081943	-0.19472	-0.14849	-0.33823	-0.235	0.31529	-0.13778
offrire	0.30667	0.10461	0.081197	-0.006232	0.10128	0.11935	-0.6157	0.17838	0.49015	0.27038	-0.15805	-0.073286	0.054703	-0.17791	-0.023687	0.20486	-0.42869	0.61249	-0.056137	-0.22316	0.15295	0.38428	-0.12254	-0.025898	0.0026528	0.14117	0.052249	-0.16282	-0.27052	0.30329	0.051793	0.10787	-0.1615	-0.47113	-0.11506	0.15297	-0.20254	-0.045958	-0.22673	-0.23093	-0.12031	0.46464	-0.0087654	0.22109	0.47824	-0.03047	0.11959	-0.082151	-0.066573	0.011629	-0.36284	-0.17199	-0.45777	-0.1688	-0.0064501	-0.22411	-0.32616	-0.2508	-0.32622	0.30157	0.34449	0.035405	0.52029	-0.42141	-0.079483	0.10101	0.25693	-0.1622	-0.078006	-0.29171	-0.28438	-0.27654	0.19325	-0.13048	0.41715	0.20113	0.16005	-0.11803	0.14538	-0.21487	0.045837	0.3474	0.62009	0.4981	-0.031769	0.2208	-0.24411	0.032145	0.10965	0.67603	0.27657	-0.047115	0.32324	0.22247	-0.15031	-0.30241	0.10082	-0.025239	-0.27078	-0.36198
spiegare	0.2404	0.43695	-0.50162	-0.022902	-0.29072	0.042619	-0.28488	0.00035721	0.27824	-0.055238	-0.12556	0.35736	0.31637	0.13461	0.087355	-0.24331	0.30664	-0.090812	0.19802	0.089577	0.30053	0.43031	-0.049503	0.16879	-0.19636	-0.14654	0.25756	0.31818	0.19542	0.019803	0.038003	0.27158	0.16627	-0.19743	0.16776	-0.0055025	-0.19933	0.19568	-0.336	0.10205	-0.19596	0.028379	0.10187	0.32496	0.15702	-0.24751	0.37939	0.16001	0.11111	0.16874	-0.26134	0.18708	-0.29574	0.30145	-0.10999	-0.33633	-0.44982	0.2215	0.47019	-0.016951	0.48417	0.088632	0.099708	0.19898	0.027661	-0.0071107	-0.15559	-0.1128	-0.012103	-0.12942	0.17232	-0.19156	0.099433	-0.049637	0.38527	-0.0078123	0.066654	-0.047463	-0.025488	-0.2839	-0.31352	0.14294	0.27347	0.4606	-0.087442	-0.17408	0.10975	0.18515	-0.38886	0.08099	0.20742	0.20055	0.61341	-0.53389	-0.040826	-0.013878	-0.04847	-0.43813	-0.14771	0.20779
decidere	-0.071525	0.06495	-0.095384	0.047398	-0.16842	-0.26068	-0.29839	0.42432	0.29095	0.083451	-0.16132	0.25146	-0.042538	-0.034801	0.0070337	0.13818	0.21062	-0.23558	-0.23063	-0.27352	0.010094	0.36616	0.083088	-0.17643	0.093386	-0.24281	0.22987	0.30189	-0.33001	-0.034854	-0.22851	0.099295	-0.066601	-0.17731	-0.11588	-0.079043	0.25432	-0.246	-0.12662	-0.0071165	0.22564	-0.043411	-0.23146	0.23735	0.52327	-0.028315	0.51538	-0.021234	0.0089421	0.15685	-0.44316	-0.10322	-0.43043	0.023833	-0.41349	-0.36363	-0.3514	0.24624	0.012614	0.42921	0.34563	-0.18131	0.25218	-0.058373	-0.14494	0.128	0.024531	0.35738	-0.074187	-0.23908	-0.1048	-0.28944	0.23716	-0.21138	0.12643	0.18623	0.031971	0.11938	-0.36397	-0.27919	-0.000036909	0.088296	0.17684	0.49057	0.30662	-0.33528	0.046329	0.19228	0.0053504	-0.36911	0.11697	0.10087	0.033675	-0.24388	-0.022248	-0.1843	0.044614	0.2319	0.19404	0.14742
ritenere	0.33147	0.10923	-0.53432	-0.29786	-0.14458	0.24879	-0.20744	0.30875	0.17533	0.13542	-0.10039	0.17668	0.070565	-0.022443	-0.16147	0.47003	-0.1658	0.076022	-0.38033	-0.19232	0.093513	0.2756	0.00064799	0.075446	-0.06606	-0.11377	0.29873	0.1813	-0.21492	-0.075505	-0.1503	-0.032353	0.33155	-0.15731	-0.059846	0.084933	0.17017	0.17676	-0.43242	0.057475	0.19234	-0.027488	0.27128	0.21707	-0.099879	-0.13935	0.59167	0.16883	0.10122	0.23279	-0.052489	-0.46894	-0.41711	0.14106	0.11757	-0.24421	-0.1478	0.1375	0.11162	0.15634	0.43436	0.28621	0.26957	0.19749	0.19854	-0.33156	0.11779	0.1188	0.06897	-0.2794	-0.059929	-0.69663	0.065213	0.01243	0.33515	-0.10529	-0.20092	-0.33243	-0.13648	-0.19971	0.13542	0.37065	0.25486	-0.15138	0.1387	-0.10413	0.10888	0.19806	-0.2274	-0.13298	0.15788	0.084879	0.21651	-0.39382	-0.48187	-0.45709	-0.097112	-0.083418	-0.22432	-0.22708
consentire	0.30859	0.22017	0.19405	-0.1068	-0.0013402	-0.30702	-0.62443	0.28685	0.32722	0.42278	-0.24635	-0.16247	-0.14843	-0.18093	0.12025	0.22497	-0.12912	0.086683	-0.0050416	-0.22474	0.41774	0.2417	0.015193	0.04383	-0.099012	-0.55082	0.084851	0.11237	-0.36292	-0.15703	-0.10377	0.12329	-0.01643	-0.43073	0.29949	0.046917	-0.20872	-0.13312	-0.17373	0.092632	0.087418	0.043319	0.080185	0.35516	0.16256	-0.13745	0.20139	0.019095	-0.0013896	0.20808	-0.37698	-0.28931	-0.20311	0.098231	-0.17855	-0.22858	-0.23381	-0.069202	0.016117	0.094089	0.061067	-0.045242	0.8343	-0.0064438	-0.12677	0.041948	-0.31512	-0.20608	-0.20416	-0.44662	-0.4277	-0.32032	0.22611	-0.040646	0.16219	0.23122	0.0039863	-0.099886	0.097751	0.021539	0.10057	0.17874	0.28932	0.16445	-0.048695	0.27282	-0.09658	0.36393	-0.038044	0.28014	0.28703	-0.1114	-0.18498	0.036533	-0.50304	-0.19286	-0.40919	0.12204	-0.10461	-0.23489
ottenere	-0.056197	0.18361	-0.0097364	-0.060963	-0.59803	-0.10072	-0.22391	0.26161	0.36516	0.27597	-0.22896	0.37197	-0.021932	-0.36058	-0.27681	0.23858	-0.3251	0.028425	0.051268	-0.16065	0.26528	0.11442	0.064511	0.22159	-0.20256	0.30609	0.36552	0.2678	-0.24248	0.16959	0.30745	-0.14694	0.054258	-0.52915	0.29721	0.22777	-0.10311	-0.20451	0.022059	-0.015109	0.026222	0.18286	-0.092138	0.37063	0.28829	0.098291	0.3484	-0.033158	-0.25103	-0.032254	-0.60418	-0.063845	-0.24248	0.030896	-0.29412	-0.058016	-0.25553	0.29486	-0.049813	-0.52457	0.019722	-0.46859	0.72531	-0.13102	0.24138	-0.12671	-0.14689	-0.090873	-0.24021	-0.16749	-0.35313	-0.19454	0.46248	-0.23015	0.2367	0.25225	0.3084	-0.1846	-0.041737	0.27787	0.0020989	0.36227	0.61809	-0.0097197	0.14005	-0.027859	-0.097504	0.18732	-0.052785	0.25137	-0.17934	0.32806	0.098682	0.21023	-0.0063972	-0.55711	-0.36991	0.006296	0.12171	-0.43256
guardare	0.21132	0.26041	-0.29976	0.20061	-0.024322	-0.066886	-0.42743	0.21979	-0.22874	0.4389	-0.44418	0.20084	0.14677	0.055893	0.17234	0.057355	0.13564	0.24746	0.38421	-0.20029	-0.12604	-0.088898	-0.41231	-0.23253	0.056239	-0.19091	0.30374	-0.349	-0.18136	0.37838	-0.034161	0.16797	-0.68065	-0.26214	-0.11976	-0.1688	0.024097	-0.31406	-0.77169	0.045603	-0.37213	0.30298	-0.030624	0.29534	0.28984	-0.34038	-0.021777	0.071857	0.14737	-0.034272	-0.069105	0.27973	-0.18109	0.50753	0.0925	-0.64195	-0.16355	0.39963	0.12735	0.22233	0.64224	-0.17238	0.081769	0.14208	0.31868	0.14555	0.043316	0.32014	-0.1336	-0.034298	0.0071868	-0.059809	0.22135	-0.06974	0.10486	-0.01764	0.29179	0.11429	-0.036619	-0.20169	0.20209	0.040104	-0.14354	0.12856	0.07171	-0.13154	0.34133	0.09549	-0.060582	-0.10679	-0.45815	0.032939	0.53332	0.078907	-0.020639	-0.083348	0.0055968	-0.17354	0.16593	0.14175
iniziare	0.27287	0.049999	-0.10054	0.30084	-0.22066	0.0025187	-0.16888	0.32197	0.5393	-0.11244	-0.24219	0.31058	0.065241	0.17996	-0.079361	0.0093062	0.073508	-0.089389	0.13485	-0.078952	0.12949	0.12138	-0.20492	-0.37636	-0.014058	-0.18053	0.26701	0.059124	-0.44272	0.13294	0.05993	0.37566	-0.2953	-0.26415	0.11626	-0.035701	0.00052844	-0.10155	-0.1624	0.042879	-0.19649	-0.43525	-0.21909	0.035932	0.17713	-0.46906	0.30987	0.10103	-0.051427	0.10794	-0.6229	0.079139	-0.26251	0.233	-0.43533	-0.18349	0.0024165	0.24415	-0.015925	-0.17179	0.26452	-0.2173	0.16952	-0.044041	0.29627	0.31504	-0.053831	0.3277	-0.1883	0.0047234	0.074988	0.1257	0.09475	-0.028165	-0.070911	0.44621	0.30212	0.33643	-0.05759	-0.26351	0.01353	-0.10885	0.41837	0.34968	0.097607	0.0018637	0.042456	0.15811	-0.082329	-0.1841	0.26972	-0.17527	-0.011819	-0.27462	-0.070671	0.022354	-0.30101	0.20762	0.24563	-0.12964
dedicare	0.46939	-0.037995	0.10378	0.21982	0.047384	0.021847	-0.47375	-0.20781	0.32415	-0.070327	-0.014075	0.60877	0.19609	0.033309	-0.074606	0.34903	-0.53601	0.32845	-0.068556	0.4058	-0.16285	0.18369	-0.09685	-0.14027	0.26731	0.05899	-0.0666	-0.26039	-0.24108	0.20413	-0.18856	0.29933	-0.15735	-0.17061	-0.20082	-0.13414	0.22863	0.28452	-0.076516	-0.25282	-0.19475	-0.25961	-0.040986	0.17763	0.57014	-0.6125	0.17303	0.3303	-0.30382	-0.092487	-0.19016	0.025998	-0.1687	0.099716	-0.39404	-0.60415	-0.32299	-0.2224	0.0065424	0.02204	0.73194	-0.032281	0.19889	0.13433	0.0079895	0.36853	0.17075	0.092811	-0.19615	-0.42884	-0.46265	0.093213	0.082556	0.048568	0.27054	-0.13546	-0.036981	0.40671	0.265	-0.051762	-0.010379	0.10782	0.38465	0.97453	0.097793	0.32793	-0.21596	0.21564	-0.089735	0.38527	0.12192	0.011019	0.10842	-0.20452	-0.26166	-0.12109	0.052844	0.058028	-0.44154	-0.34795
costituire	0.68613	0.4275	-0.20964	-0.32149	-0.25028	-0.15668	-0.27122	0.041507	0.4295	0.049157	-0.063551	-0.11547	0.26684	-0.029595	-0.4984	0.24326	-0.75623	0.4063	-0.040096	-0.12345	-0.026968	-0.040928	0.2711	0.37714	0.047547	-0.0078278	0.066161	0.12066	0.19517	-0.27953	-0.14656	0.00045882	0.19046	-0.26683	-0.048332	-0.30548	0.047597	-0.010614	0.078051	0.35035	0.061005	-0.27311	-0.15546	0.28187	0.30066	-0.2735	0.38284	0.012786	-0.26032	-0.12643	-0.29796	-0.24542	-0.15451	-0.038835	0.55892	-0.039519	0.010376	-0.13029	-0.16396	-0.13734	0.2038	0.31682	0.5511	0.22108	0.57352	-0.079382	0.18832	-0.25834	-0.31241	-0.067122	-0.27982	-0.48514	-0.0029689	-0.30072	0.20774	0.18832	0.13669	0.019607	-0.15201	-0.077818	0.39622	0.23316	0.0098359	0.015753	0.043558	0.053778	-0.16927	0.13599	-0.38872	0.35035	0.36098	-0.11857	0.30866	-0.37437	-0.25869	-0.33195	-0.19021	-0.02643	-0.32182	-0.52899
cambiare	-0.29629	0.63754	-0.16046	0.30855	-0.16236	-0.45716	-0.045561	0.54221	-0.20611	0.11284	-0.1538	0.049817	0.0778	0.18033	0.046973	-0.20778	0.10834	-0.22118	0.29716	-0.22276	0.064104	0.26185	-0.32879	-0.09521	-0.090589	-0.21727	0.19416	-0.099491	-0.15165	0.31797	0.18987	0.2114	-0.31736	-0.2106	-0.031116	-0.25925	0.09712	-0.25879	-0.4044	-0.082115	0.37694	0.092548	-0.28425	0.31367	0.24277	-0.14898	0.104	0.098245	0.35289	-0.0023904	-0.56194	-0.073201	-0.45338	0.2545	-0.3919	-0.46005	-0.23311	0.087258	-0.14737	-0.26293	0.51864	-0.031559	0.1297	0.20453	0.30003	0.38023	-0.25173	0.15486	0.11773	-0.26034	0.35719	-0.057818	0.15862	-0.15297	0.34375	0.050076	0.42695	-0.29211	-0.02099	-0.16477	-0.13236	0.20061	0.22601	0.31569	0.21335	-0.62631	0.13888	0.41162	-0.095215	-0.01227	0.19356	-0.35574	0.26025	-0.019219	0.015418	0.051893	0.059349	0.12606	-0.036788	-0.1596
restare	0.22489	0.30957	-0.38432	-0.19198	-0.31568	-0.2146	-0.23116	0.20901	-0.16875	0.19506	-0.22156	0.28895	-0.28867	-0.009358	-0.10971	0.35228	-0.21915	0.35988	-0.33382	0.0013733	-0.11073	0.48802	-0.25151	-0.14233	-0.0013314	-0.092781	0.26572	-0.31191	-0.071272	0.28399	-0.091821	0.22357	0.0040207	-0.20807	-0.17263	-0.37179	0.22709	-0.14427	-0.060366	0.015092	-0.28872	0.2976	-0.090709	0.4236	0.13397	-0.2829	0.19691	-0.30379	-0.099231	0.12239	0.016424	-0.063154	-0.3284	0.24858	-0.038955	-0.32624	-0.18149	0.10235	0.16332	0.044157	0.12677	0.21962	0.30063	0.1228	0.28065	0.32892	-0.21092	0.4073	-0.061508	-0.39194	0.22014	-0.31435	0.061204	0.18894	0.050364	0.18874	0.085202	-0.095374	-0.43911	0.027884	0.39188	0.073968	-0.19147	0.061581	-0.041635	-0.099938	0.33602	0.24861	-0.066411	-0.22572	-0.030477	-0.13262	0.1989	-0.11301	-0.20365	-0.25011	0.02761	-0.021616	-0.21264	0.0083055
perdere	0.32241	0.4771	-0.24974	0.18302	-0.17606	-0.51458	-0.21023	0.58599	0.12116	-0.11498	-0.27685	0.16939	-0.091461	0.13832	0.014173	0.085285	-0.064547	0.097343	0.043046	-0.015584	0.092034	0.16059	-0.31621	-0.0026927	-0.053292	0.11294	0.38492	0.07602	-0.31713	0.23329	0.22038	-0.000061617	-0.058305	-0.21341	0.10358	-0.32885	0.075161	-0.21308	-0.17946	-0.0091633	-0.083856	0.4361	-0.36448	0.2541	0.27777	-0.17152	0.28401	-0.12723	0.13619	-0.071048	-0.19242	0.19306	-0.4894	0.044198	-0.12993	-0.37319	-0.5223	0.1308	-0.082601	-0.15215	0.18842	-0.23335	0.10995	0.19017	0.23672	0.33346	-0.0091076	0.18889	-0.29834	-0.37114	0.15994	0.02416	0.05308	0.22248	0.11089	0.015498	0.29825	-0.18917	0.14155	0.051741	0.33951	0.35989	0.0025767	0.20525	-0.1517	-0.30162	0.0094392	-0.064735	-0.091929	-0.30831	-0.1008	-0.3699	0.44507	-0.10159	0.032034	-0.20738	0.44042	0.29103	0.28501	-0.21501
aggiungere	0.040375	0.20364	-0.5793	0.080453	-0.33301	-0.36684	-0.2308	0.0043534	0.00026515	0.072351	-0.25078	0.31938	0.36929	-0.36395	-0.081504	-0.045503	-0.39781	0.2509	0.06618	0.18614	0.21564	0.35675	-0.022451	0.32033	0.05872	-0.27664	0.24184	-0.050408	0.03373	0.17289	0.083073	-0.18147	0.16487	-0.32997	0.35131	-0.14573	0.0082352	0.15355	-0.27104	0.10772	-0.13586	0.20762	0.21593	0.73614	0.14288	-0.11738	0.41894	-0.31075	0.41018	0.074282	-0.67986	-0.045971	-0.28461	0.26848	-0.28878	-0.27468	-0.28554	-0.1184	0.23113	-0.36919	0.168	0.27681	-0.020599	0.16373	0.11214	0.061851	-0.00040796	-0.14004	-0.23779	0.0032642	0.11592	-0.075835	0.22235	0.18062	0.19823	-0.17109	0.35767	-0.20157	-0.14276	-0.050432	0.1681	0.0099507	0.46096	0.36932	-0.04833	0.29584	0.18093	0.030024	-0.22894	0.025767	0.13747	0.17206	0.47152	-0.3758	0.20373	-0.23037	-0.3054	-0.14314	-0.088794	-0.050585
definire	0.15439	0.28846	-0.32551	-0.2156	-0.067478	0.13474	-0.12435	0.22396	0.19801	0.41804	-0.048624	0.40954	0.33336	0.17377	-0.17397	-0.074365	-0.12177	0.24581	0.095076	-0.029799	0.11372	0.11787	0.24187	-0.033721	-0.2174	-0.159	0.19223	0.28592	-0.084682	-0.0013304	-0.090613	0.081107	0.34891	-0.23052	-0.061212	-0.52993	-0.36095	0.060942	-0.13536	0.0039295	0.0037077	-0.023878	0.20335	0.040716	0.54949	-0.2635	0.3195	0.39034	-0.021964	0.19961	-0.067448	-0.34273	-0.33233	0.2124	-0.19721	-0.098924	-0.029903	-0.16077	0.068795	-0.10258	0.40861	0.35282	0.02421	0.34707	0.51548	-0.14634	0.19075	0.039634	0.0096163	-0.024169	-0.22348	-0.43316	0.29112	-0.19028	0.30919	0.13344	-0.034413	-0.31223	0.17282	-0.13667	-0.12413	0.17447	-0.023912	0.086373	-0.049236	0.029494	0.010323	0.83546	-0.16244	0.19943	0.10755	-0.020695	0.28688	-0.22746	-0.10245	-0.064763	-0.068672	-0.072369	-0.28018	-0.34613
uscire	0.25516	0.15653	-0.05317	0.26324	0.16613	-0.55536	-0.18974	0.22405	0.13508	0.15529	-0.076274	0.36945	0.017693	-0.046687	-0.33341	0.1035	0.072069	0.28101	0.32688	-0.074211	0.099495	0.29886	-0.23274	-0.24127	-0.011566	0.29033	0.053597	-0.099601	-0.17045	0.19791	0.26686	-0.044888	-0.42586	-0.2499	-0.32452	-0.41709	-0.19698	-0.52336	-0.19939	0.181	-0.38877	0.0085161	-0.39057	-0.10571	0.55965	-0.033905	0.4853	-0.025786	0.11836	0.0093154	-0.17287	0.27557	-0.26535	0.3256	-0.10022	-0.28935	0.24762	0.78309	-0.17159	-0.091174	0.34598	0.36928	0.36254	0.2082	0.29553	0.16187	0.041927	0.060652	-0.22766	-0.14307	0.18097	-0.34289	0.0344	-0.058744	-0.20721	0.16223	0.16561	0.12603	-0.071833	-0.23137	0.23768	-0.2033	0.18293	0.28215	0.16206	-0.39449	0.28875	0.15062	0.0081908	0.013172	0.24387	-0.20932	0.32911	-0.08251	0.11725	0.1428	0.01577	0.29192	0.068482	0.18419
rispondere	0.035224	0.33559	-0.58356	0.3618	-0.16158	0.50787	-0.60541	0.21703	0.19925	0.227	-0.10819	0.054759	0.28405	-0.22576	0.40138	-0.17141	-0.1914	0.14207	0.35504	0.098198	0.39934	0.54735	-0.1585	0.014507	-0.14243	0.11031	0.43456	0.00097957	-0.34545	0.18047	-0.0081968	0.26491	0.25051	-0.25288	-0.26078	0.2078	-0.27672	-0.24622	-0.56388	0.16183	-0.13997	0.2068	0.14808	0.4007	0.17291	-0.1511	0.096307	0.14484	0.15316	0.11578	0.086204	-0.067172	-0.26237	0.18654	-0.22415	-0.37731	-0.20175	0.23288	0.36818	0.26422	0.11821	0.13416	0.12165	0.46983	0.26118	-0.0030504	-0.059585	0.4997	0.25839	0.044486	-0.01111	-0.2562	-0.030361	0.1049	0.38307	0.08066	0.4234	-0.33902	0.014927	-0.11839	-0.21617	0.10969	0.12903	0.46644	0.20337	-0.23942	0.18088	-0.040733	-0.23717	-0.30006	0.10072	0.51084	0.33928	-0.086283	0.048791	-0.024685	0.13635	-0.067228	-0.56246	-0.0063071
prevedere	0.26423	0.61613	-0.13522	-0.34272	-0.26201	0.0082095	-0.32472	0.21678	0.45425	0.12208	-0.19066	-0.061824	0.47444	-0.0017903	-0.31844	0.28705	-0.26181	0.28817	-0.22856	-0.25953	-0.011179	0.096971	0.26601	-0.11778	0.12374	-0.39333	-0.027012	0.31987	-0.16483	0.18056	-0.5357	0.093823	0.16643	-0.29029	0.29934	-0.072689	-0.43487	-0.091183	-0.33279	0.010727	-0.19221	-0.11118	0.18096	0.12701	0.30927	-0.25826	0.4546	-0.18478	-0.034564	0.26456	-0.33262	-0.35628	-0.38581	0.07454	-0.38942	-0.14138	-0.18632	-0.081547	0.074967	-0.041407	0.026192	0.11563	0.67992	0.24422	0.44101	-0.020186	-0.26122	-0.17426	0.051125	-0.36766	-0.40578	-0.11441	0.30061	-0.18186	-0.028043	-0.096627	-0.057242	0.16012	-0.071928	0.10296	0.095969	-0.03626	0.44944	0.45825	-0.22863	0.099983	-0.13974	0.43642	-0.075864	0.34523	0.42044	-0.20299	-0.1676	-0.19968	-0.30156	-0.17603	-0.25426	-0.091551	-0.36223	-0.29326
raggiungere	0.4909	0.050681	0.25397	0.032218	-0.029163	-0.26638	-0.13036	0.46587	0.55462	-0.0057694	-0.5231	0.1511	-0.017541	0.31398	-0.31717	0.027255	0.035891	0.13257	-0.27427	-0.17714	0.051686	0.04861	-0.16746	-0.22039	-0.1583	-0.050276	0.34402	0.17732	-0.44695	0.31049	0.14349	0.022173	0.28195	-0.81202	0.24561	-0.1509	-0.3319	-0.66641	-0.017495	0.51614	0.13795	0.12379	0.14971	0.2558	0.12197	-0.051753	0.39486	0.0010809	-0.050376	-0.094061	-0.082301	-0.034271	-0.10086	0.1499	0.24299	-0.015348	-0.17057	0.28955	-0.41991	-0.28359	0.3793	-0.10101	0.49148	-0.066463	0.24297	0.097955	-0.088696	0.22654	-0.3644	0.091535	-0.10277	-0.21424	-0.16443	-0.12614	0.3088	0.38733	0.49505	-0.5341	0.19989	-0.17652	0.19222	0.031846	0.28223	0.32603	-0.24488	0.028121	-0.040926	0.1492	0.25272	0.14107	-0.046492	0.0026747	0.53066	-0.14729	-0.11794	-0.32937	-0.18428	-0.15275	0.052566	-0.12933
finire	0.22184	0.16886	-0.035165	0.23314	-0.03135	-0.26523	-0.21543	0.40514	-0.10382	0.032412	0.090523	0.52036	-0.17649	0.00057738	0.0023477	0.030715	0.037803	0.050881	0.13208	-0.061141	-0.044322	0.1296	-0.12492	-0.085504	0.051371	0.22041	0.1884	0.14366	-0.18836	0.1645	-0.089442	0.10605	-0.23517	-0.20036	0.19877	-0.24455	-0.1194	-0.19434	-0.085729	-0.07004	-0.15917	0.23301	-0.21052	0.20127	0.33672	-0.33849	0.33473	-0.27432	0.086128	-0.13507	-0.24036	0.21309	-0.50528	0.42195	-0.23614	-0.45004	-0.075936	0.45289	-0.1394	-0.10032	0.29584	-0.16242	0.041666	0.25274	0.25078	0.18044	-0.019862	0.19309	-0.16397	-0.25449	0.26675	-0.10161	0.27975	-0.01582	-0.030051	0.15721	0.27541	0.26251	-0.1774	-0.10556	0.14757	0.071984	0.069582	0.038182	0.071138	-0.097634	0.30004	0.024279	-0.010039	-0.31546	0.27994	-0.23724	0.30359	-0.20279	-0.051198	0.15268	-0.044459	0.1918	0.11842	-0.080772
pubblicare	-0.21462	0.34921	-0.73739	0.29901	-0.043337	-0.12072	-0.35868	-0.32012	0.47157	-0.14801	0.46001	0.61812	0.079484	-0.23591	-0.52359	0.58911	0.15259	-0.058175	0.41394	0.45214	0.31899	-0.04639	-0.1944	-0.15058	0.08943	0.25248	-0.055602	-0.23225	-0.43874	-0.076259	0.3988	-0.27036	0.32093	-0.49114	-0.67311	-0.19453	0.29475	-0.50693	-0.084234	-0.42726	0.11893	-0.26617	0.15849	-0.55613	0.42965	-0.38854	0.56645	0.078577	-0.085975	0.10222	0.0099038	0.23546	-0.27951	0.36146	-0.41985	-0.31365	0.31238	0.10404	0.018405	0.015843	0.57285	0.74365	0.52139	0.14712	0.31114	0.17871	0.38265	0.034182	-0.47494	-0.13781	-0.48781	0.0028544	-0.17619	-0.54549	0.059791	-0.15139	-0.20254	-0.27388	0.054026	-0.025174	-0.3057	-0.27008	0.43099	0.25932	0.1963	-0.14789	0.23758	0.28999	-0.010439	0.29256	0.19234	0.084287	0.25427	-0.3706	-0.23317	0.087757	-0.078201	0.074117	-0.12611	-0.15403
servire	0.31025	0.074461	0.10568	0.0049276	0.04116	-0.2414	-0.31676	0.27815	0.19503	0.16201	-0.068026	0.14384	0.22277	-0.4509	0.17438	0.014413	0.077482	-0.059316	0.2415	-0.34605	0.26747	0.27498	0.21405	0.055749	0.0018681	-0.14713	0.16781	0.13241	0.1014	0.12763	0.022693	0.073548	-0.23415	-0.074337	0.3077	-0.12918	-0.30427	-0.091716	-0.15773	0.0085745	-0.042844	0.20237	0.018859	0.46104	0.40602	-0.21337	0.12213	-0.22412	0.13553	0.049119	-0.53973	0.057812	-0.48015	-0.030701	-0.13965	-0.49334	-0.24098	0.11999	0.053426	0.066975	0.14837	-0.022919	0.19573	-0.074679	0.14756	0.11076	0.01068	0.16408	-0.15239	-0.15542	0.27938	-0.25848	0.21724	0.27481	0.17444	0.073928	0.29925	-0.24691	-0.020994	0.02465	0.079906	0.26916	0.39469	0.25647	0.1863	0.262	0.0045001	-0.015145	-0.29152	-0.026196	0.096113	-0.0094343	0.28486	-0.025619	-0.010877	-0.0034028	-0.35881	-0.020116	-0.10549	-0.35114
sostenere	0.52141	0.44753	-0.28471	-0.14507	-0.23967	0.064054	-0.21086	0.35894	0.27339	-0.070199	-0.021298	0.20045	0.49436	0.0031677	-0.035506	0.16718	-0.065256	-0.10271	-0.28644	0.0027684	-0.072734	0.52175	-0.17036	-0.14285	-0.25992	0.11944	0.13104	0.35156	-0.029888	0.23084	-0.1416	0.0025141	0.1834	-0.16516	0.062297	0.21507	0.029177	0.092559	-0.32459	0.12454	-0.07537	-0.33433	0.012443	0.017373	0.18742	-0.30483	0.45666	0.25593	0.088465	0.22648	-0.23401	-0.12204	-0.39774	-0.017763	-0.14346	-0.2014	-0.35035	0.22671	0.28557	0.32621	0.20692	0.019611	0.34746	0.25034	0.26689	-0.023347	0.014151	-0.12764	-0.27712	-0.07054	-0.1668	-0.3866	-0.13168	0.070729	0.27782	0.22965	-0.072008	-0.17667	-0.15627	-0.12762	0.041534	0.42558	0.27127	0.11562	0.13661	0.1598	-0.093688	0.043724	-0.22112	0.052513	0.28616	0.48576	0.58831	-0.023081	-0.19366	-0.24046	0.072335	-0.33244	0.04779	-0.095924
partecipare	0.19302	0.51109	-0.014009	0.25718	-0.23544	0.23607	-0.30402	-0.15653	0.70661	0.15986	-0.21122	0.42091	0.42466	-0.04752	-0.13476	0.2549	-0.22585	0.033855	0.17083	0.29163	-0.13098	0.33166	-0.049953	-0.032167	0.05201	-0.1855	-0.042763	0.19611	-0.45951	0.22525	-0.47029	0.24416	0.34685	-0.021826	-0.49941	0.35988	0.19655	0.30947	-0.34901	0.38438	-0.20507	-0.22849	0.059734	0.21285	0.84495	-0.47148	0.36843	0.0076969	-0.15262	-0.098902	-0.35811	0.028353	-0.22991	0.19074	-0.4937	-0.043673	-0.36066	-0.031195	0.064532	0.066692	0.45822	-0.35855	0.10932	0.17273	0.19694	-0.097861	-0.062533	0.17218	-0.14683	-0.29765	-0.39072	-0.12123	-0.10592	-0.066302	0.17852	0.2101	0.18252	-0.060875	-0.27676	0.0066905	0.12272	-0.21399	0.28538	0.51889	0.27077	0.0077266	-0.36291	0.18763	-0.1955	0.28259	0.1376	0.14478	-0.013093	0.30097	-0.28695	-0.42239	-0.077577	0.076069	0.40629	-0.019284
avvenire	0.27409	0.41459	-0.060177	0.035499	-0.51504	0.090435	-0.11897	0.034919	0.39939	-0.039205	0.11636	0.38581	0.40104	0.026872	-0.029813	0.13893	-0.030729	0.1288	-0.048933	0.016304	0.018851	0.12608	-0.043481	0.16646	0.11033	-0.26828	0.10889	0.1145	-0.45928	0.18326	0.090322	0.69287	0.096645	-0.40227	-0.063775	0.12276	-0.07481	-0.45942	-0.14876	0.1897	0.29607	0.12624	-0.1913	0.22671	0.14336	-0.60092	0.29341	-0.15887	-0.40592	0.2867	-0.5158	-0.1284	-0.044516	0.60607	-0.31101	0.078016	-0.062946	0.35763	-0.29755	-0.35895	0.10531	-0.21036	0.38198	0.095269	0.40069	-0.045827	-0.25545	0.086966	0.064158	-0.29372	0.12014	-0.14631	0.023301	-0.11462	-0.10755	0.16036	-0.048699	0.063365	0.23147	-0.0088724	0.14262	-0.19318	0.4025	-0.34981	-0.10835	-0.097512	0.06978	0.32781	-0.51318	0.27443	0.2533	-0.21531	0.0065617	-0.30512	-0.25955	-0.27171	-0.19612	0.13344	-0.14701	-0.14169
bastare	0.15889	0.055962	-0.16486	0.26816	-0.042642	-0.059744	-0.33424	0.49282	-0.15304	0.1626	-0.10567	0.1412	0.014698	-0.20855	0.14304	0.19202	0.26809	-0.2436	0.34325	-0.095107	0.29927	0.087845	-0.079144	0.13378	0.043068	-0.21176	0.24861	-0.020775	0.079472	0.015915	-0.0017102	0.10656	-0.15806	-0.071668	0.27332	-0.23966	-0.065544	-0.071624	-0.17068	-0.067361	0.081564	0.2313	0.021736	0.31863	0.295	-0.15563	0.24717	-0.14044	0.2241	-0.016987	-0.43878	0.18111	-0.38049	0.16295	0.033485	-0.57292	-0.16606	0.25425	0.15689	0.070252	0.13949	-0.053268	0.29795	0.12837	0.076281	0.24901	0.026417	0.4315	-0.18294	-0.21915	-0.00015037	-0.00045775	0.13311	0.26356	0.11974	-0.036589	0.37115	0.0029648	-0.049875	0.064996	0.022072	0.15569	0.26257	0.17602	-0.030524	0.081981	0.39751	0.12343	-0.16976	-0.0031743	-0.17018	-0.029543	0.36965	0.09903	-0.078696	0.092988	-0.3221	0.17543	0.044012	-0.064341
scegliere	-0.024014	0.29905	-0.10832	0.25247	-0.02222	-0.32313	-0.13661	0.31257	0.1856	0.10302	-0.3723	0.29777	0.13063	0.19215	0.033464	-0.11367	0.14668	-0.023598	-0.17417	-0.10272	-0.016515	0.46219	0.089997	0.24427	0.017371	-0.20756	0.14614	0.087981	-0.1917	0.21082	-0.13467	-0.15682	-0.034677	0.042657	-0.30515	-0.13527	0.10981	-0.17636	0.10308	-0.29919	0.15538	-0.1316	-0.028592	0.35978	0.73049	-0.035971	0.19977	0.12725	0.15049	-0.074515	-0.68169	-0.16894	-0.34449	0.24495	-0.1482	-0.52845	-0.136	-0.080613	-0.203	0.22669	0.50556	-0.15024	0.23185	-0.067052	0.015896	0.1277	0.079513	-0.13397	0.085456	-0.42176	-0.12313	-0.48469	0.19326	-0.28128	0.23221	-0.1437	0.37678	-0.39853	-0.0047187	-0.14477	0.099182	0.15476	0.35676	0.42151	0.2811	-0.1431	-0.048066	0.5961	-0.030368	0.10834	-0.065042	0.17242	0.083651	0.16002	-0.0048498	-0.22359	0.10889	-0.003713	0.0062195	-0.030623
esprimere	-0.052945	0.40046	-0.59271	-0.064572	-0.13089	0.20921	-0.093422	0.21732	0.32216	0.12401	0.092835	0.33071	0.088299	-0.32338	0.074806	0.034572	-0.31466	0.35297	-0.098602	-0.19277	0.23038	0.26257	-0.14863	-0.0963	-0.23446	-0.0056825	0.25087	0.20731	0.081084	0.094854	-0.11012	0.38446	0.73159	-0.26681	-0.38702	0.10471	0.13072	-0.26867	-0.56152	0.4783	0.011539	-0.089735	-0.19591	0.37054	0.23819	-0.016248	-0.1471	0.32929	0.087044	0.17982	-0.10619	-0.075824	-0.30912	0.097447	-0.031234	0.044009	-0.26036	-0.14204	0.3296	-0.26852	0.62102	0.0083694	0.30555	0.17471	0.3574	0.053814	0.49916	-0.035798	-0.54848	0.17818	-0.38978	-0.3332	0.33712	-0.0034261	0.14127	-0.26198	0.13756	-0.7315	0.079666	-0.099068	-0.16184	0.063222	0.27872	0.31744	0.38521	-0.36927	0.21916	0.3239	-0.34571	0.16184	-0.20125	-0.14359	0.33565	-0.26654	-0.35404	-0.61271	-0.21592	-0.12032	0.086466	0.0098517
risultare	0.40682	0.18746	-0.49953	-0.32274	-0.23778	-0.023445	-0.24004	0.1556	0.055271	0.06243	-0.12918	0.10323	-0.029557	0.12542	0.0050786	0.47594	-0.31474	0.20241	-0.25877	0.041761	0.2504	0.1056	0.18574	0.26031	-0.47254	0.15636	0.28318	-0.06242	-0.013058	0.1894	0.12609	-0.050722	0.2692	-0.073499	0.091541	-0.06491	0.13115	-0.14699	-0.22688	-0.054582	-0.081656	0.14572	-0.13959	0.02968	-0.045774	-0.31434	0.46301	-0.016247	0.11414	-0.026843	-0.26149	-0.35422	-0.020596	0.47165	0.1555	-0.21687	0.020747	-0.13209	-0.18841	-0.31962	0.087069	0.3612	0.42005	0.2517	0.22788	-0.021964	-0.34886	0.19975	-0.08807	-0.21058	-0.26849	-0.60484	-0.013273	0.024365	0.085645	0.076623	0.00019984	-0.25897	-0.30532	0.052274	0.17985	0.25528	0.33228	-0.45004	-0.075649	-0.22741	0.10895	0.28094	-0.072339	0.17519	0.023344	-0.2491	0.088569	-0.18097	-0.59401	-0.51415	-0.29975	-0.047702	-0.17929	-0.41999
intendere	0.079105	0.15892	-0.20812	0.20274	0.18179	0.20208	-0.31076	0.24674	0.088099	0.15399	-0.16724	0.11143	0.0004255	-0.1824	0.015965	-0.036924	-0.061541	-0.14029	-0.13535	-0.2984	0.16026	0.25579	0.063284	0.11254	-0.20143	-0.43526	0.40983	0.20188	-0.16997	0.046658	-0.14787	0.006591	-0.12277	0.040513	-0.23562	-0.081612	-0.012377	-0.0091486	-0.27261	0.24991	0.0093767	-0.28866	0.10233	0.40748	0.49124	-0.2365	0.18102	0.11332	0.24917	0.38889	-0.082897	-0.39801	-0.31648	0.055315	-0.33787	-0.25904	-0.26383	0.10741	0.11363	0.18747	0.092975	-0.020417	0.22657	0.059315	0.35339	-0.12149	0.016974	0.045205	-0.34126	-0.22005	-0.13271	-0.16693	0.20035	0.074886	0.29441	0.095586	-0.10246	-0.087924	0.12542	-0.20797	-0.10744	0.21873	0.11608	0.074258	0.1029	0.25828	-0.10773	0.19071	-0.33769	-0.062047	0.28882	0.076002	0.35867	-0.029305	-0.45363	-0.16717	-0.15188	0.028293	-0.070692	-0.13573
richiedere	0.013769	0.48733	-0.20386	0.20677	-0.38326	0.07784	-0.57874	0.28119	0.2734	0.32023	-0.2917	-0.089035	0.14129	-0.14947	-0.080985	0.25533	-0.38886	-0.00025674	0.010367	-0.32271	0.46269	0.07035	0.040301	0.25934	0.090569	-0.21824	0.13963	0.19324	-0.25963	0.049758	0.10363	0.13929	0.17434	-0.14906	-0.018947	0.35831	-0.38497	-0.14443	-0.10849	0.10697	0.09595	-0.10273	-0.08689	0.10714	0.2043	-0.1256	0.38567	-0.05529	-0.18047	0.30849	-0.35112	-0.26636	-0.083547	0.17996	0.047944	0.016399	-0.051393	-0.23857	0.089201	0.017144	0.18119	0.12123	0.52491	0.0062733	0.26665	0.1729	-0.2526	0.1668	-0.088776	-0.53298	-0.29933	-0.30801	0.072082	0.21725	-0.11504	0.18476	0.056016	-0.25738	0.17301	0.043687	0.15697	0.36941	0.61747	0.44033	-0.082068	-0.10536	-0.027376	0.17604	-0.31908	0.32103	0.21328	0.12549	0.011039	-0.010011	-0.29537	-0.50119	-0.30746	0.19598	-0.23692	-0.47589
comprendere	0.49222	0.35589	-0.2051	0.24288	-0.086337	0.088799	-0.062411	0.1239	0.31201	0.083841	-0.11428	-0.11601	0.26407	-0.043691	-0.097628	0.18178	-0.21382	0.17005	0.056707	-0.185	0.0069981	0.27341	0.024624	-0.056114	0.14073	-0.045443	0.1108	0.14218	-0.14112	0.13609	-0.12383	0.03189	-0.089608	-0.027831	-0.13249	-0.41878	-0.39997	-0.094082	0.049453	0.12477	-0.1812	-0.075724	0.048339	0.51987	0.24019	-0.30648	0.24231	0.10393	-0.14977	0.2095	-0.24074	-0.060059	-0.038441	0.41416	0.031823	-0.043581	-0.22784	-0.22294	-0.18667	-0.025101	0.56292	0.13325	0.31562	0.24204	0.40445	0.11175	-0.031612	-0.05598	-0.083059	-0.1256	-0.28443	-0.2997	0.014345	0.052686	0.20964	-0.13239	0.11989	-0.14547	0.038446	-0.067619	0.14654	0.20115	0.2664	0.30167	-0.36096	0.21785	-0.059312	0.14543	-0.10558	0.43206	0.10197	0.009925	0.13275	-0.25784	-0.23236	-0.21614	-0.07724	0.0080904	-0.019297	-0.42708
fornire	0.14523	0.27371	-0.094483	-0.26412	-0.22374	0.11412	-0.70022	0.17072	0.15808	0.37556	-0.2214	-0.073561	-0.0067872	-0.43343	0.14903	0.16101	-0.36962	0.24495	0.3669	-0.040608	0.29433	0.1146	-0.070612	0.047383	0.084699	0.33036	0.23984	-0.13748	-0.15323	-0.094513	0.28191	-0.28838	0.28756	-0.34831	0.0161	0.19583	-0.30257	-0.0032509	-0.28366	0.14728	0.20852	0.10104	-0.15486	-0.05051	0.17057	-0.31311	0.42654	-0.023467	-0.0019461	0.054831	-0.32237	-0.34926	-0.29824	0.13035	0.25056	-0.26276	-0.31353	-0.27482	-0.24275	0.052758	0.45027	0.33211	0.62627	-0.19287	0.28773	0.081325	0.095897	-0.11292	0.10191	-0.34878	-0.46307	-0.3128	0.055878	-0.093287	0.27543	0.43403	-0.063446	-0.33479	0.052424	-0.11925	-0.025559	0.36656	0.54975	0.3971	0.064702	0.28263	-0.43253	-0.081075	-0.27894	0.40884	0.28584	0.28313	0.18375	-0.15424	-0.31919	-0.14004	-0.2959	-0.2586	-0.50794	-0.25373
effettuare	0.35874	0.25703	-0.27852	-0.042424	-0.079656	-0.14507	-0.5532	0.091398	0.44977	0.16909	-0.23121	-0.22761	0.14534	-0.11773	-0.13771	0.38245	-0.017576	0.20322	0.21805	-0.046174	0.15955	-0.031137	0.12956	0.1409	0.064212	-0.52231	-0.30924	0.29888	-0.44567	0.074476	0.34905	0.1036	0.21314	-0.48508	0.021528	0.18058	-0.17329	-0.48015	-0.27644	0.12252	0.070697	-0.27898	-0.062533	0.12817	0.11971	-0.48032	0.59282	-0.42666	-0.35441	0.11773	-0.44899	-0.14715	-0.19979	0.51261	-0.03152	-0.20728	-0.092431	-0.27261	-0.44227	-0.21175	0.1419	-0.36816	0.72328	0.056663	0.30213	0.2055	-0.29595	-0.3099	0.26784	-0.59525	-0.21904	-0.084954	0.15887	-0.1692	-0.31595	0.27417	-0.16254	-0.15116	0.13312	-0.076891	0.0087321	0.2841	0.91627	-0.021433	0.19622	0.064777	-0.031069	0.51694	-0.18944	0.18785	-0.16457	0.26125	-0.37816	-0.27339	-0.588	-0.26368	-0.18653	-0.23105	-0.16938	-0.28608
cominciare	0.27529	0.13384	-0.14575	0.232	-0.07877	-0.014979	-0.20266	0.31287	0.25493	-0.027841	-0.25723	0.46265	0.01783	0.12324	0.063024	0.004991	0.1074	-0.12241	0.23846	-0.14014	0.1919	0.22655	-0.20027	-0.49634	0.0021776	-0.059771	0.36948	-0.031804	-0.32743	0.0057851	0.076966	0.24096	-0.53555	-0.14355	0.046113	-0.083851	-0.09602	-0.092975	-0.26878	0.2006	-0.00008214	-0.079444	-0.23191	0.1217	0.16833	-0.35062	0.22962	0.01348	0.086403	0.17315	-0.48333	0.2522	-0.29762	0.1853	-0.31785	-0.25042	-0.019215	0.40344	-0.000040865	0.084673	0.2199	-0.12551	0.087736	0.040899	0.16779	0.23694	-0.045423	0.36182	-0.28922	0.020731	0.2327	0.039045	-0.020585	-0.097788	0.01238	0.24796	0.34175	0.23254	-0.13699	-0.23239	0.092478	-0.10536	0.13499	0.184	0.091673	0.024145	0.18867	0.18779	-0.12357	-0.1535	0.12463	-0.049745	0.23771	-0.21625	-0.024753	0.14256	-0.24051	0.24192	0.12755	-0.089681
provare	0.14965	-0.12829	-0.40071	0.17859	-0.067031	-0.10692	-0.34237	0.42877	0.045487	0.22086	0.075992	-0.041559	-0.22708	-0.028369	0.13695	-0.17438	0.39154	-0.083062	0.16254	-0.095638	0.50598	0.16868	-0.27943	0.17356	0.10748	-0.05155	0.18281	-0.052153	-0.11762	0.17462	-0.016796	-0.17651	-0.027715	-0.14737	0.19154	0.1035	-0.075883	-0.29658	-0.3195	0.18946	-0.3022	0.20482	-0.15378	0.4001	0.35494	-0.027631	-0.04006	-0.37996	0.10387	0.36276	-0.48642	0.33628	-0.46644	0.36043	-0.028163	-0.31495	-0.33718	0.29963	0.19739	0.11814	0.63191	-0.29334	0.25555	0.15462	0.23633	0.2754	0.13742	0.091086	-0.12394	-0.13715	0.0021093	-0.046458	0.14048	-0.054767	-0.052382	-0.13618	0.23822	-0.11924	-0.1258	-0.23403	-0.0054236	0.066341	0.28486	0.19135	0.21064	0.048698	0.021924	0.092325	-0.086853	-0.14677	0.034313	-0.18419	0.31702	0.064859	-0.070958	-0.20758	-0.12811	0.41212	0.18305	-0.015856
organizzare	0.41642	0.40152	0.23772	0.053484	0.26802	0.25308	-0.51587	-0.11894	0.51043	0.15112	-0.22619	0.016891	0.54552	-0.054851	-0.33763	0.17661	-0.31903	0.11076	0.32211	0.20431	-0.37659	0.48578	0.36016	-0.17946	-0.202	0.098762	-0.048598	0.15132	-0.087606	0.0057247	-0.21759	-0.0019864	0.24511	-0.048309	-0.20719	-0.085786	0.091019	0.13832	-0.11381	0.38188	-0.10612	-0.37672	-0.11463	-0.45415	0.98763	-0.56681	0.61981	-0.19344	-0.046153	-0.09454	-0.36104	0.15636	-0.44731	0.036953	-0.13871	-0.13096	-0.54493	0.27547	-0.1931	0.14272	0.46185	-0.26359	0.2647	0.046449	0.011547	0.11765	0.21327	-0.13457	-0.14623	-0.23312	-0.1195	0.16717	-0.10073	-0.20292	0.4097	0.40947	0.18625	0.27047	-0.024984	-0.4024	-0.29005	-0.01493	0.37783	0.42084	0.18428	0.057424	-0.43974	0.21142	-0.24611	0.21052	0.38302	-0.28325	0.070861	0.29509	-0.38696	-0.28624	0.0083304	0.14323	0.0797	-0.34871
raccontare	0.42196	0.5389	-0.4185	0.33057	0.037345	-0.082377	-0.19226	0.083697	0.28227	0.15078	-0.014633	0.53347	0.34084	0.16751	0.2757	-0.38696	0.081674	0.31447	0.25489	0.17311	0.11822	-0.079006	-0.19851	-0.017968	-0.056319	0.06168	0.41679	0.021136	-0.27542	0.1268	0.15906	0.33518	0.11318	-0.39607	-0.34131	-0.05035	-0.068129	0.14559	-0.11988	-0.19225	-0.15805	0.46356	-0.23158	0.021792	0.42028	-0.51033	0.030911	0.18496	-0.04611	0.062377	-0.37903	0.53317	-0.31036	0.43919	-0.12174	-0.38969	-0.27304	0.45264	0.14658	0.037023	0.76158	0.22815	0.042804	-0.25518	0.013085	0.32626	0.019793	0.094465	0.085057	-0.035765	-0.064904	-0.052177	0.12255	0.038966	0.026993	-0.1127	0.30973	0.37215	-0.098063	-0.047951	-0.23736	0.17484	0.12131	0.23504	0.12567	0.19204	-0.0721	0.061806	-0.12785	0.24131	0.20675	-0.054282	0.55832	-0.37208	-0.35039	0.055935	0.17721	0.16491	0.24917	0.27546
riconoscere	0.21768	0.62502	-0.2144	0.15563	-0.43715	-0.13494	-0.1647	0.3491	0.16666	0.32689	-0.18742	0.23394	0.22106	-0.078705	-0.41899	0.047949	-0.25538	0.26878	-0.24101	-0.37926	0.18054	0.13412	-0.35052	-0.17264	-0.16297	0.017657	0.14715	0.18242	0.010486	-0.074593	0.20096	0.070223	0.31297	0.050235	-0.30629	-0.010522	0.13757	0.056591	-0.28598	0.092656	-0.052128	0.094474	0.27867	0.22478	0.4081	0.053989	0.1511	0.2135	-0.071728	0.3824	-0.0097005	-0.34209	-0.31915	0.30518	0.12113	0.2315	-0.27474	0.36209	0.10897	0.092265	0.27877	0.11556	0.19429	0.29487	0.20209	0.052503	0.039446	0.19173	-0.076451	-0.33652	-0.22672	-0.43844	0.16379	-0.29834	0.49416	0.12839	0.17294	-0.23862	0.29039	-0.037361	0.14583	0.39214	0.16339	-0.053405	0.026643	0.12634	-0.062306	0.34307	-0.44631	0.14983	-0.1618	0.10612	0.43711	0.058536	-0.076941	-0.27357	0.12965	0.12236	0.0096748	-0.42685
dimostrare	0.47343	0.28503	-0.34651	0.053796	-0.3909	0.0030353	-0.283	0.21169	0.25081	0.28356	0.065089	0.28188	0.00043595	0.018157	-0.0079767	0.1262	0.022536	0.13302	-0.11969	-0.15638	0.18423	0.35194	-0.26583	-0.024385	-0.42347	0.09532	0.11768	0.16646	-0.060224	0.1302	0.38563	-0.07019	0.16125	-0.41451	0.069195	0.23858	-0.032083	-0.073388	-0.19297	0.1284	-0.046183	-0.004877	-0.082143	-0.01586	0.058672	-0.39857	0.047915	0.085665	-0.26333	0.032917	-0.43758	0.065785	-0.37713	0.21614	0.039061	-0.13856	-0.24204	0.33597	0.42387	0.046826	0.27586	-0.011562	0.28668	0.38712	0.44254	-0.31675	0.27595	0.2514	-0.16795	-0.27203	-0.071348	-0.13217	-0.016734	-0.030506	0.27135	0.11926	-0.13276	-0.50684	-0.089929	0.24429	-0.11508	0.50308	0.1293	-0.12772	-0.15489	-0.077352	-0.14467	0.17653	-0.055555	0.18044	-0.14103	-0.10791	0.34872	-0.1272	-0.45515	-0.33517	-0.19314	-0.1694	0.096914	-0.075311
garantire	0.24387	0.64403	0.29205	-0.29853	-0.24958	-0.30096	-0.38324	0.3963	0.089118	0.49126	-0.16723	0.026485	0.01596	-0.13377	-0.12854	0.12036	-0.6316	0.068669	0.038995	-0.4763	0.055853	0.34761	-0.1588	0.13772	-0.40632	-0.1908	0.18467	0.25006	-0.19123	0.20581	-0.023979	0.026408	0.33061	-0.32111	0.086174	0.2776	-0.42397	-0.37917	-0.31124	-0.084914	0.084757	0.34005	0.22982	0.29506	0.20932	-0.10239	0.30342	-0.0078292	-0.28968	-0.30244	0.020406	-0.37399	-0.68002	-0.18411	0.001093	-0.24956	-0.36643	-0.0044936	-0.2242	0.25561	0.043041	0.22651	0.74178	0.15152	0.07678	0.067435	-0.085521	-0.010083	-0.14429	-0.55348	-0.18324	-0.1388	-0.0034449	0.2232	0.25328	0.37927	0.24613	-0.23941	0.31827	0.39301	0.1956	0.31893	0.31014	0.44859	-0.19613	0.17721	-0.41432	0.42599	-0.18713	0.33249	0.43838	0.079273	-0.21926	-0.16289	-0.28583	-0.49901	-0.22841	-0.22817	-0.11298	-0.20799
pagare	0.30163	0.51696	-0.022605	0.16438	0.15908	-0.34374	-0.080639	0.24184	0.034493	0.35935	-0.024563	0.1666	0.66449	0.052481	-0.064936	0.2237	0.045156	-0.3017	0.15139	-0.34539	0.13939	0.1953	-0.27062	-0.12485	-0.025802	-0.13948	0.22949	0.57334	0.052684	0.13073	0.17818	0.21113	0.0871	0.043136	0.02275	0.35515	-0.14463	-0.34959	-0.10679	-0.64966	0.16423	0.42895	-0.062376	0.073423	0.40056	-0.20588	0.68457	-0.71437	0.040522	0.29076	-0.089707	0.1802	-0.5555	0.017663	-0.17584	-0.2903	-0.080981	0.19169	-0.30431	0.29786	0.36262	0.019767	0.32977	0.12523	0.30439	0.18754	-0.14438	0.17283	0.14996	-0.55559	0.052859	-0.39642	0.17057	0.33571	0.35352	-0.035358	-0.18636	0.2238	-0.24448	0.11524	0.25732	0.35822	0.65954	0.29884	-0.15626	-0.37153	0.62356	-0.085404	0.11316	-0.088713	-0.33785	0.38833	0.55405	0.045167	-0.14695	-0.16643	0.06053	0.083586	0.091991	-0.50555
bisognare	0.24708	0.09352	-0.15696	0.2745	0.11595	-0.074973	-0.14031	0.69164	-0.18018	0.13882	-0.38769	0.010469	-0.22835	-0.15749	0.13517	0.056673	0.43983	-0.42433	0.098482	-0.30956	0.25178	0.33699	0.1323	0.042959	0.036493	-0.41837	0.1586	0.0040022	0.069666	-0.098244	0.097088	-0.076823	-0.2849	-0.14445	0.069195	0.1066	-0.22211	-0.24485	-0.25147	0.03377	0.22317	0.025468	0.22812	0.42579	0.33452	-0.20845	0.24466	0.049663	0.26245	0.068373	-0.30636	0.18392	-0.35604	0.18678	-0.18408	-0.494	-0.014322	0.35606	0.18231	0.18843	0.36646	-0.078729	0.22068	0.049153	0.14379	0.010218	-0.21264	0.35561	-0.29656	-0.34699	0.45564	-0.21704	-0.082298	0.11888	0.35315	0.089564	0.085302	-0.12845	-0.12397	-0.019918	0.14904	0.29378	0.15122	0.22874	0.04194	0.22368	0.2717	0.25285	-0.26273	-0.14958	0.00906	0.010389	0.23444	-0.14163	-0.091156	-0.028542	-0.34735	0.18321	0.23883	-0.096351
ricevere	0.004452	0.39679	-0.12644	0.079105	-0.50596	0.26016	-0.5917	0.025112	0.48182	-0.24976	0.026487	0.28382	0.12962	-0.41481	-0.10782	0.18539	-0.15356	0.19993	0.32001	0.067944	0.45276	0.52163	-0.19588	0.069227	0.2622	0.072694	0.091959	0.11917	-0.22051	0.20638	0.43988	0.39704	0.20529	-0.38984	-0.33034	0.36438	0.07837	-0.41712	0.065575	-0.043156	0.090321	0.32931	-0.10871	-0.18091	0.49166	-0.07719	0.31012	-0.17307	-0.18033	0.22743	-0.33504	-0.16702	-0.12698	0.075463	-0.031508	-0.076607	-0.27224	0.14716	-0.41442	-0.20547	0.12893	-0.010413	0.38932	0.13134	0.1366	-0.039619	0.28878	0.21306	-0.10613	-0.30919	-0.44515	-0.30124	0.29975	0.034686	0.1545	0.056338	0.40488	-0.0095725	0.14625	0.18549	0.13597	0.26869	0.49357	0.27358	0.12154	-0.42538	0.22914	-0.24307	-0.29826	0.27848	-0.52904	0.68052	0.060919	0.12997	-0.19857	-0.18639	-0.10198	0.043403	-0.25729	-0.36816
contenere	0.32382	0.39198	-0.41163	-0.14109	-0.49582	0.018713	-0.041004	-0.055546	-0.029704	0.21382	0.15572	0.021676	-0.32695	-0.42359	-0.29979	0.29857	-0.4449	0.30046	0.32484	0.18961	0.38748	0.25492	0.36403	0.023802	0.24698	0.16431	-0.11242	-0.050205	-0.072529	-0.12976	-0.1149	-0.26625	0.061905	-0.22858	0.056209	-0.37267	0.0015987	-0.10406	0.11399	0.029503	0.11166	-0.088638	0.1123	-0.04901	0.12449	-0.35501	0.23277	-0.10029	0.28631	0.20523	-0.29306	-0.5124	-0.15623	0.38639	0.19789	-0.43067	0.28163	-0.14766	-0.16186	-0.29554	0.3392	0.46471	0.69041	0.27018	0.45554	0.1414	0.15184	-0.16518	-0.45101	-0.19861	-0.48071	-0.3462	0.48656	0.022251	-0.20127	-0.15467	0.28676	-0.34912	-0.081483	0.37935	0.21413	-0.21373	0.30655	0.28378	-0.093217	0.10301	-0.027856	-0.0046758	-0.23329	0.43492	0.14616	-0.10211	0.32349	-0.48564	0.066444	0.041518	-0.67743	0.099554	-0.32992	-0.30598
sperare	0.087301	-0.026686	0.016543	0.08993	-0.12595	0.10731	-0.45924	0.54899	0.13791	-0.025592	-0.25659	0.31697	-0.22225	-0.2507	-0.11542	0.25428	0.39956	-0.36047	0.25762	-0.15407	0.30188	0.34458	-0.3352	0.11054	0.086422	-0.093647	0.37882	-0.064951	-0.14686	0.55842	0.038779	0.18845	-0.32727	-0.23664	-0.022728	0.016903	0.069983	-0.12097	-0.54095	-0.017198	-0.13271	0.4724	0.094935	0.21499	0.11421	-0.24235	0.3759	-0.056906	-0.0068235	-0.093156	-0.024892	0.25203	-0.56162	-0.11504	-0.21662	-0.42174	-0.23185	0.54928	0.15823	0.048845	0.35701	-0.032459	0.14802	0.1899	0.33704	-0.086604	0.13359	0.27489	-0.15987	-0.14371	0.11746	-0.16811	0.17085	0.15794	0.1629	-0.11756	0.15765	0.073983	-0.18146	-0.24034	0.1134	-0.053815	0.17819	0.21584	0.19349	-0.26003	-0.024011	-0.11687	0.13186	-0.29709	0.070081	-0.18971	0.064761	-0.0966	-0.40895	-0.29873	-0.12501	0.36497	0.16958	0.12523
costruire	0.72279	0.26079	0.035906	-0.18594	0.050215	-0.39022	0.15064	0.55337	0.22887	0.17798	-0.13479	-0.0026423	0.091204	-0.15548	-0.19395	-0.28331	-0.15565	0.0014923	0.093409	-0.086957	0.012013	0.070139	-0.10099	0.23248	-0.1106	0.31441	0.43658	0.10454	-0.16977	0.21965	-0.29766	0.077478	0.053551	-0.61159	-0.27256	-0.15536	0.034607	-0.29595	0.11725	0.26518	0.21623	-0.026431	-0.36218	-0.073545	0.16276	-0.068099	-0.14819	-0.20206	-0.32092	0.030509	-0.38106	0.11543	0.084036	-0.13784	-0.33495	-0.55102	-0.094418	-0.05112	0.22042	0.071096	0.54137	0.09433	0.24742	0.15152	0.55591	0.043515	0.082839	-0.094701	-0.032421	0.20352	0.094041	-0.40894	0.14502	-0.3289	0.40926	0.56004	0.26445	0.23887	-0.038683	0.10514	-0.02043	0.71986	0.051248	0.56613	0.26858	0.27624	-0.025971	0.43461	-0.20592	0.092776	0.28446	-0.16716	0.56466	-0.2314	-0.19787	-0.016547	-0.38157	-0.1664	0.041973	-0.29617
vistare	-0.23922	0.1721	-0.39365	-0.23394	-0.19425	-0.19045	-0.12797	0.24004	0.25063	-0.54435	-0.29891	-0.033843	0.18764	0.029938	-0.31597	0.36484	-0.082418	0.10699	0.15009	-0.29176	0.25229	-0.11095	-0.37546	-0.29362	-0.4585	0.080741	-0.22043	0.13939	-0.23318	-0.079711	-0.087094	0.18023	-0.019102	-0.27844	-0.16121	-0.21497	-0.046391	-0.09734	-0.4646	0.076951	0.042819	0.38521	0.02984	0.051168	0.19123	-0.18838	0.39828	-0.022547	-0.047196	0.10433	-0.42321	0.075762	-0.33133	0.56091	-0.31563	-0.015982	0.12828	0.15284	0.29308	0.099508	0.41282	0.25509	0.30898	0.097522	0.18409	0.0040807	0.18075	0.47795	-0.22321	-0.19126	-0.31192	-0.1673	0.25372	-0.14059	-0.20697	-0.16719	-0.03114	-0.2511	0.13781	-0.036552	0.22353	0.14645	0.26542	0.015884	-0.078745	-0.1621	0.2668	0.070581	0.046655	-0.3753	0.23316	-0.45132	0.34566	0.17444	-0.2504	-0.15599	-0.23697	0.13643	0.032365	-0.48014
morire	0.60481	0.080973	-0.020276	0.10828	-0.24684	-0.20787	0.093655	0.62747	0.50542	-0.13615	0.53277	0.90355	0.20579	-0.013965	-0.10217	-0.0052869	0.080755	-0.1588	-0.095233	0.016867	-0.21106	-0.14679	-0.5229	-0.27372	0.034325	0.32834	0.37355	0.00068155	-0.0049286	-0.11287	0.6242	-0.11423	0.25898	-0.35458	-0.35989	-0.24749	0.48358	-0.44237	-0.25875	0.010217	-0.10992	0.52711	0.21346	0.20619	0.34604	-0.43189	0.19215	-0.025102	-0.23446	0.17321	-0.22591	0.18495	0.12841	0.34391	-0.1774	-0.43213	-0.37858	0.19725	-0.27566	-0.016132	0.45839	0.087558	-0.079416	0.65841	-0.04349	0.40348	0.00026288	0.52466	0.14631	-0.57097	0.60806	-0.08116	0.1092	0.026369	-0.13829	-0.05229	0.5228	0.23868	-0.088962	0.065209	0.089958	-0.12534	-0.10839	0.10485	-0.089485	-0.0646	0.1546	0.046808	-0.24821	-0.40007	0.058587	0.027121	0.67025	-0.18009	-0.015601	-0.19462	0.14564	0.55659	-0.19951	0.22867
mancare	0.15061	0.28158	-0.20239	0.050746	-0.33749	-0.12041	-0.33425	0.39891	0.11101	-0.066989	-0.11967	0.25305	0.08751	-0.23446	-0.043236	0.37838	-0.075476	0.24598	0.089033	-0.0051366	0.23705	0.33024	-0.15141	0.20729	0.01771	0.12042	0.044374	0.034781	0.068808	0.3197	-0.052937	0.2585	-0.21781	-0.063158	0.035302	-0.13361	-0.22428	0.011387	-0.29179	0.11316	-0.11308	0.28691	-0.12319	0.27947	0.20816	-0.25854	0.32627	-0.12931	-0.085653	-0.087806	-0.19313	0.10942	-0.57978	0.15117	0.20941	-0.29266	-0.1881	0.20845	0.14902	-0.2087	0.26147	0.27848	0.10543	0.21599	0.20237	0.099956	0.080799	0.446	-0.079054	-0.17711	0.031108	0.071243	0.029181	0.20945	-0.13352	-0.12266	0.32711	-0.17891	0.067756	0.045989	0.16987	0.36456	0.10838	0.34514	-0.19826	0.061878	0.022605	0.042399	-0.20518	-0.00097069	0.039764	-0.29132	0.34385	-0.14735	-0.2183	-0.11066	-0.046569	0.10512	-0.12404	-0.1838
inviare	-0.091242	0.59738	-0.01269	0.083894	-0.21394	0.20223	-0.67211	0.09967	0.3389	-0.1591	-0.34894	-0.16887	0.35055	-0.91965	0.19407	0.13886	-0.060262	-0.20307	0.90561	0.80918	0.31639	0.12655	-0.33405	0.31272	-0.1202	-0.38599	0.22078	0.020578	-0.0922	0.0083017	0.15053	0.2704	0.74399	-0.36814	-0.4082	0.26971	0.44225	-0.55307	-0.17041	-0.1258	0.12763	0.089249	0.076004	-0.35745	0.45799	-0.28239	0.70163	-0.24301	-0.43096	-0.096605	-0.22297	-0.26633	-0.22516	0.4434	-0.20207	-0.38907	0.11584	-0.18689	-0.20489	-0.036128	0.51386	0.22992	0.21738	-0.18619	0.45986	0.18381	0.43438	0.11128	0.15211	-0.009889	-0.2455	-0.40371	0.50333	0.25017	0.054971	-0.26407	0.37007	-0.12041	0.12797	0.07625	-0.19533	-0.17315	0.40686	0.28676	0.27723	-0.32578	-0.096663	-0.065302	-0.022019	-0.40924	-0.1125	0.59889	0.18792	0.0078794	-0.096694	0.023467	-0.072414	-0.045444	-0.56165	0.1545
assumere	-0.013365	0.5777	-0.2791	-0.042239	-0.10263	-0.024733	0.093332	0.2351	0.22848	0.31233	-0.69982	0.18223	0.17314	0.020904	-0.30908	0.13187	-0.28565	0.20471	-0.37101	-0.63236	0.14121	0.10204	0.23143	-0.18817	-0.084312	-0.01848	0.2543	0.18248	-0.38355	-0.1758	0.14952	0.036344	0.22381	-0.09743	-0.052719	0.13075	0.12239	0.23711	-0.17342	0.25788	0.041271	0.049561	-0.1883	-0.13958	0.3153	-0.53299	0.15732	0.33082	0.22458	-0.089766	-0.59609	-0.60831	-0.28192	0.2349	0.019361	0.016823	-0.27492	-0.36354	-0.061411	-0.15562	0.31144	0.28844	0.20225	0.15958	0.56385	0.41931	0.26056	0.28237	-0.41099	-0.40496	0.15058	-0.39789	0.017245	-0.12348	0.3511	0.26267	0.051305	-0.27806	0.182	0.046459	0.010697	0.023382	0.0086387	-0.01375	0.063288	-0.49859	-0.026238	0.13864	-0.20547	0.023518	-0.077523	0.088428	0.25905	-0.55479	0.22342	-0.44695	-0.14458	0.070074	-0.24256	-0.19563
affermare	0.32624	0.30623	-0.31091	-0.040515	-0.46106	0.089367	-0.29805	0.24041	0.25302	0.11405	0.14875	0.52632	0.17603	0.025151	-0.068099	-0.01363	-0.084467	0.067128	-0.36416	-0.076468	0.097806	0.34905	-0.33679	-0.049528	-0.34422	-0.13962	0.19278	0.24285	0.0093005	-0.08559	0.0189	0.1895	0.4436	-0.34234	-0.14457	0.10261	-0.0364	0.261	-0.38299	0.15929	-0.041965	-0.11467	0.09188	0.21597	-0.015429	-0.10092	0.3781	0.26758	0.18419	0.34042	-0.08035	-0.26889	-0.30733	0.19477	-0.092529	-0.29404	-0.40225	0.32071	0.55193	-0.076495	0.47664	0.12062	0.11711	0.16731	-0.016243	-0.14452	0.20975	-0.1176	-0.065998	-0.15492	0.062248	-0.30155	-0.021778	-0.17092	0.48999	-0.020808	0.015734	-0.16008	0.10154	-0.098856	-0.026055	0.18277	0.16015	0.10481	-0.023827	-0.12067	0.086756	0.38246	-0.40229	0.096248	0.090512	0.15268	0.70689	-0.55748	0.01631	-0.16073	-0.13947	-0.46408	0.055309	0.086721
affrontare	0.44149	0.18932	-0.36159	0.34653	-0.23075	0.14649	-0.56393	0.75812	0.29493	0.28111	-0.43923	0.10748	0.24689	0.3375	0.031625	-0.017842	-0.093369	-0.09587	-0.1039	-0.25171	0.056045	0.21532	0.42485	-0.27757	-0.12912	0.027876	-0.0083886	-0.087912	-0.14348	-0.10249	-0.1134	-0.13293	0.11534	-0.43843	-0.087438	0.030008	-0.28765	0.14335	-0.0054887	0.16583	-0.095482	0.27422	-0.49994	0.14352	0.60945	-0.42306	0.29526	0.24734	-0.28468	-0.10709	-0.18459	0.11519	-0.062849	0.18119	-0.21843	-0.17659	0.28612	0.16512	0.3306	0.32394	0.92888	0.012211	0.14883	0.22337	0.38008	0.25855	-0.052144	-0.012502	-0.28818	-0.32159	-0.01078	-0.048771	-0.27585	0.055823	0.54898	-0.072651	-0.1825	-0.46739	-0.087643	-0.20485	0.37318	0.014763	0.17497	0.66258	0.019077	0.063086	-0.16542	0.014475	-0.063578	0.16868	0.65071	-0.012338	0.000061934	-0.36934	-0.14282	-0.17533	0.25137	0.36251	-0.11016	0.026664
amare	0.15453	-0.070518	-0.099599	0.40716	0.44686	-0.10476	-0.16625	0.29012	0.35035	0.10047	-0.00044122	0.60414	-0.073441	0.19634	0.14101	-0.014718	0.11552	-0.32509	0.025643	-0.13428	-0.088307	0.2201	-0.11373	-0.14916	-0.070602	-0.24258	0.30213	-0.24716	0.15274	0.34184	0.13899	-0.096359	-0.19978	-0.17253	-0.53948	0.2406	-0.046905	-0.095865	-0.17943	-0.2361	-0.033359	-0.026862	0.13167	0.47795	0.36628	-0.24826	-0.21219	0.19232	0.018619	0.24974	-0.024198	0.15832	-0.44422	0.10491	0.019507	-0.51521	-0.21847	0.31868	-0.023453	0.30035	1.0425	0.065335	-0.13672	0.40338	0.039568	0.41227	0.30123	0.15526	0.10246	-0.50694	-0.12423	-0.17052	0.34861	0.013382	0.027	-0.53891	0.69099	-0.037623	-0.14753	-0.019081	0.082341	0.17059	-0.051995	0.039197	0.017747	-0.048362	0.068046	0.22495	-0.17918	-0.25379	-0.10253	-0.4486	0.79762	0.19445	-0.16995	-0.57622	0.21296	0.26582	0.2029	-0.0052645
aiutare	0.3865	0.26933	-0.11363	0.17748	0.080831	-0.10632	-0.31697	0.4873	0.48019	-0.010463	-0.38128	-0.0092837	-0.16777	-0.13224	0.11695	-0.26009	0.065989	-0.45556	0.4027	-0.30581	0.27451	0.37922	-0.098291	-0.14499	0.1439	0.052032	0.19219	-0.08628	0.040468	0.41254	0.10887	-0.1732	-0.25827	-0.089171	0.37479	0.22014	0.11217	0.055606	-0.36983	-0.083698	-0.13279	0.27026	-0.06117	0.058045	0.38447	-0.35326	0.1694	0.43148	0.0029171	-0.00083981	-0.29079	0.10366	-0.24727	0.031689	-0.20132	-0.099227	-0.41317	0.38614	-0.15253	0.48202	0.35259	0.032549	0.076481	0.069514	-0.002473	0.30593	-0.1872	0.11076	-0.12066	-0.3514	0.089704	-0.46382	0.16954	0.19977	0.44943	0.10053	0.1732	-0.11417	0.0063696	-0.28202	0.048044	0.29086	0.19652	0.42739	0.33101	0.10777	-0.32142	-0.10837	-0.17693	0.043664	0.28091	0.25197	0.35407	-0.14382	-0.30342	-0.11624	-0.29625	0.21532	0.10335	0.036926
aspettare	0.063423	0.18617	-0.063849	0.076176	-0.26695	0.086491	-0.52402	0.39663	0.1626	0.233	-0.20627	0.32246	0.097835	-0.022028	-0.13918	0.31271	0.27298	0.15941	0.26452	-0.21043	0.21242	0.19879	-0.12104	-0.018713	0.073423	-0.027819	0.26031	-0.035322	-0.21822	0.38382	0.061826	0.35976	-0.41508	-0.31901	-0.12619	0.025782	-0.30131	-0.22659	-0.45297	-0.15572	-0.20992	0.3693	0.014788	0.1799	0.14858	-0.29298	0.36249	-0.25612	-0.093286	-0.061418	-0.24404	0.32302	-0.30567	0.15031	-0.16777	-0.29574	-0.065353	0.46371	0.066352	0.07165	0.34084	-0.12893	0.24645	0.13915	0.17268	0.026389	0.054629	0.56067	0.1134	-0.18851	0.19229	-0.17503	0.14417	-0.10287	-0.12126	0.018993	0.25845	-0.1171	-0.12344	-0.30613	0.26597	-0.095598	0.28031	0.53806	0.029918	-0.4331	0.10812	0.13279	-0.027598	-0.29395	-0.0078979	-0.045372	0.23911	-0.057603	-0.064847	-0.092725	0.033428	0.27955	0.016967	0.096401
